tree
version=v3
num_class=1
num_tree_per_iteration=1
label_index=0
max_feature_idx=21
objective=lambdarank
feature_names=catalog_anonymous_total_clicks catalog_anonymous_unique_clicks catalog_anonymous_views catalog_total_clicks catalog_unique_clicks catalog_num_of_orders catalog_ordered_quantity catalog_avg_rating catalog_signedup_views supplier_num_of_customers supplier_num_of_orders supplier_ordered_quantity supplier_num_catalog_orders supplier_num_product_orders user_num_add_to_carts user_clicks_total user_clicks_unique user_num_of_orders user_num_of_cancelled_orders user_num_of_shares supplier_num_catalog_offerings supplier_num_sscat_offerings
feature_infos=[0:141989] [0:144958] [0:146541] [0:149638] [0:109471] [0:137669] [0:148352] [0:151502] [0:117963] [0:120227] [0:146267] [0:149303] [0:146541] [0:149638] [0:146541] [0:149638] [0:142599] [0:145609] [0:65115] [0:135957] [0:146267] [0:149303]
tree_sizes=3571 3578 3577 3573 3618 3635 3626 3647 3650 3580 3638 3628 3612 3542 3583 3620 3619 3599 3528 3575 3571 3583 3555 3546 3565 3584 3572 3570 3584 3552 3561 3557 3541 3532 3584 3526 3540 3568 3599 3559 3579 3586 3544 3561 3555 3580 3568 3587 3551 3560 3564 3559 3566 3584 3572 3557 3559 3558 3559 3578 3579 3522 3572 3566 3576 3581 3600 3581 3563 3576 3553 3558 3580 3551 3556 3556 3561 3561 3612 3556 3548 3574 3543 3553 3554 3579 3580 3576 3559 3589 3556 3541 3542 3543 3566 3547 3577 3571 3580 3535 3547 3561 3572 3597 3577 3555 3604 3547 3535 3568 3579 3549 3548 3564 3566 3543 3571 3560 3553 3559 3554 3606 3583 3579 3570 3541 3568 3579 3546 3571 3565 3540 3544 3530 3544 3512 3522 3534 3560 3540 3570 3528 3541 3569 3549 3551 3557 3583 3554 3532 3619 3569 3575 3592 3526 3548 3591 3568 3551 3566 3557 3562 3556 3558 3548 3565 3560 3547 3567 3561 3554 3568 3564 3584 3547 3556 3567 3559 3575 3559 3572 3591 3573 3563 3584 3561 3565 3602 3576 3573 3564 3585 3593 3570 3550 3582 3609 3566 3535 3568

Tree=0
num_leaves=32
num_cat=0
split_feature=16 1 7 16 17 2 0 11 7 20 8 20 20 2 8 12 11 5 4 5 20 9 19 9 19 11 9 16 8 0 9
split_gain=7.98912 7.52946 8.0022 9.53811 8.42791 11.7457 7.29292 9.76608 8.55263 7.00749 6.62005 5.87594 8.24409 5.7804 5.35196 6.48088 7.90264 5.7626 5.14068 9.86531 5.07708 10.2795 8.50342 6.58547 5.66366 5.8252 5.6049 5.7105 5.78074 5.56871 5.36026
threshold=41351.500000000007 55527.000000000007 3.5000000000000004 60.500000000000007 37.500000000000007 1082.5000000000002 7520.5000000000009 3.5000000000000004 304.50000000000006 1565.5000000000002 11.500000000000002 51823.000000000007 38526.500000000007 2.5000000000000004 248.50000000000003 1.0000000180025095e-35 1.0000000180025095e-35 2.5000000000000004 8.5000000000000018 4.5000000000000009 1.0000000180025095e-35 135.50000000000003 585.00000000000011 81.500000000000014 4203.0000000000009 1.5000000000000002 22.500000000000004 45189.500000000007 94.500000000000014 11.500000000000002 65.500000000000014
decision_type=2 2 2 2 2 2 2 2 2 2 2 2 2 2 2 2 2 2 2 2 2 2 2 2 2 2 2 2 2 2 2
left_child=1 11 -3 4 5 9 -6 8 -8 -4 -10 12 -1 -14 15 -13 18 -16 -17 -20 21 22 -2 29 26 -26 -22 -28 30 -24 -29
right_child=20 2 3 -5 6 -7 7 -9 10 -11 -12 14 13 -15 17 16 -18 -19 19 -21 24 -23 23 -25 25 -27 27 28 -30 -31 -32
leaf_value=1.0251304083221884e-05 -0.19999999999999951 -0.030849428395915826 -0.20000000000000023 0.11101582885110634 0.10474790172983979 -0.13543516270642783 -0.20000000000000001 0.17910081430630076 0.15099299218612316 0.11326370961124831 -0.15821332014216899 0.12059300794035972 -0.023104481028885918 -0.10967743589736495 0.14365748835993927 -0.20000000000000007 0.064856038189650453 0.013161077286385032 0.14122176766150382 -0.13060816262813899 -0.15293015853846462 -0.20000000000000001 -0.20000000000000009 0.06722411366890603 -0.16336253478082921 0.18601528717583413 -0.078328454033074479 0.045625785178999338 0.10978753860787907 -0.019155711009130001 -0.039124826216372713
leaf_weight=63621.143667903707 2.7352618358563694 14.816842383472247 0.84827676229178717 18.070234687998891 13.053927593515256 6.6174400127201807 2.9798705010325639 1.9222720476100219 1.9150374883320185 4.5134903724538162 1.0845476776594294 3.9525332596967955 30.734991687568254 10.29612255701795 8.137418467376845 2.691278160113141 5.9052860758965826 5.792890615790383 2.0860974694369361 3.7086569836828858 2.4030812254641196 4.9136409430066115 2.2623620853992161 6.5917131909227455 3.9893493728595777 0.5420652963221072 7.0408548205159596 14.560422046517489 5.9951368703623293 6.8833840266743209 15.309438788332043
leaf_count=24210048 1042 5634 323 6879 4967 2522 1133 732 728 1719 411 1507 11696 3917 3095 1024 2246 2205 792 1412 915 1869 861 2506 1518 206 2678 5544 2280 2619 5825
internal_value=0 3.79114e-05 0.0338422 0.052635 0.0206034 -0.0463031 0.0588502 -0.0169743 -0.0800084 0.0637027 0.0391945 2.97797e-06 -1.86479e-05 -0.0448286 0.042661 0.00717446 -0.0239756 0.0893908 -0.0857921 -0.0327501 -0.0330115 -0.0714513 -0.0372581 -0.00897263 -0.0149746 -0.121569 -0.00431394 0.00400979 0.0201741 -0.0638907 0.00218788
internal_weight=0 63760.3 65.8219 51.0051 32.9349 11.9792 20.9557 7.90173 5.97946 5.36177 2.99959 63694.4 63662.2 41.0311 32.2742 18.3439 14.3913 13.9303 8.48603 5.79475 73.2267 23.3864 18.4727 15.7375 49.8403 4.53141 45.3089 42.9059 35.865 9.14575 29.8699
internal_count=24290853 24262990 25048 19414 12535 4564 7971 3004 2272 2042 1139 24237942 24225661 15613 12281 6981 5474 5300 3228 2204 27863 8897 7028 5986 18966 1724 17242 16327 13649 3480 11369
is_linear=0
shrinkage=0.1


Tree=1
num_leaves=32
num_cat=0
split_feature=6 13 0 6 0 0 20 0 11 9 2 2 2 13 19 6 11 11 0 4 10 20 8 11 20 8 4 11 16 3 9
split_gain=9.98474 14.9164 19.0562 9.97815 9.9291 9.44504 10.2557 9.62655 9.35223 9.0407 9.13051 8.99382 8.57651 9.60868 9.28441 8.66867 8.32451 10.2079 12.84 11.0992 8.16634 8.08782 8.04586 7.81381 11.7965 8.39001 8.81039 8.8142 7.16591 10.9177 17.1752
threshold=9385.5000000000018 485.00000000000006 61.500000000000007 8234.0000000000018 38.500000000000007 9.5000000000000018 49.500000000000007 1.0000000180025095e-35 703.50000000000011 801.50000000000011 54.500000000000007 151.50000000000003 104.50000000000001 398.50000000000006 6.5000000000000009 8510.5000000000018 109.50000000000001 399.50000000000006 51.500000000000007 8500.0000000000018 133.50000000000003 21.500000000000004 44345.000000000007 90.500000000000014 5.5000000000000009 1206.5000000000002 9541.0000000000018 17.500000000000004 14162.500000000002 6.5000000000000009 54.500000000000007
decision_type=2 2 2 2 2 2 2 2 2 2 2 2 2 2 2 2 2 2 2 2 2 2 2 2 2 2 2 2 2 2 2
left_child=3 4 8 28 5 7 9 -2 -3 11 -11 -7 -5 15 -15 20 23 18 -18 -20 -14 -21 -9 25 -25 26 -6 -28 -1 -30 -31
right_child=1 2 -4 12 16 6 -8 22 -10 10 -12 -13 13 14 -16 -17 17 -19 19 21 -22 -23 -24 24 -26 -27 27 -29 29 30 -32
leaf_value=3.5996095599638827e-05 -0.12183503354441261 0.11549987618592257 -0.16095895378197289 -0.014848283397801391 0.065721061670346609 -0.10538837133203725 -0.16792815747430864 0.052403718964748096 -0.064109143794526743 0.034626765068957142 -0.069484478461980137 0.078665750700843765 0.10160471124484896 -0.20000000000000001 0.062071429767076275 -0.20005949757444702 -0.15697099935453496 0.035252410193358438 0.031755355413553239 -0.016754634889375435 -0.1999999999999999 -0.14323516064080372 -0.20000000000000001 -0.072325286459293578 0.14610570520893679 -0.066371782835119339 0.1480523745731159 -0.11399662594431854 -0.01862863692474314 -0.059712635178786166 0.068495918820141041
leaf_weight=64345.72129158496 3.9923881534632519 30.800740991078783 3.0853627460019188 43.686611610464752 39.73653544622357 18.18878493686498 5.5605959445238105 32.078639544080943 3.200294670125003 27.172443429517443 12.208284940090378 3.1086924769915631 2.248975665686888 1.7932047933572892 5.4918213046330493 8.936571889658806 6.3228903774579512 63.679663814706146 31.659983041448868 14.716742042568514 1.494189736258704 7.7014654418162527 1.3146951537346456 2.986269757209814 14.369427312907645 7.5489328087423919 1.6646736743859936 5.6065804922545794 382.81882087237318 14.78706661070464 35.615281876700465
leaf_count=23980200 1487 11478 1151 16282 14806 6778 2075 11956 1193 10126 4549 1157 839 669 2044 3330 2352 23728 11802 5489 558 2870 490 1116 5352 2816 620 2089 142666 5510 13275
internal_value=0 0.0171759 0.0770012 -8.91895e-05 0.00977078 -0.015265 -0.0379462 0.024921 0.0985945 -0.0260346 0.00235159 -0.0785229 -0.039663 -0.0939622 -0.0024373 -0.146547 0.0230075 0.00731806 -0.0221326 -0.00636708 -0.0187893 -0.0602053 0.0424666 0.0500789 0.108522 0.0314868 0.0472019 -0.0540034 -5.03045e-05 -0.0128684 0.030882
internal_weight=0 336.704 37.0864 64842.6 299.618 103.625 66.2388 37.3857 34.001 60.6782 39.3807 21.2975 63.6514 19.9648 7.28503 12.6797 195.993 124.081 60.4011 54.0782 3.74317 22.4182 33.3933 71.9124 17.3557 54.5567 47.0078 7.27125 64778.9 433.221 50.4023
internal_count=24290853 125480 13822 24165373 111658 38618 24685 13933 12671 22610 14675 7935 23722 7440 2713 4727 73040 46241 22513 20161 1397 8359 12446 26799 6468 20331 17515 2709 24141651 161451 18785
is_linear=0
shrinkage=0.1


Tree=2
num_leaves=32
num_cat=0
split_feature=5 4 4 16 8 20 4 5 4 17 16 9 9 4 9 14 8 2 15 20 20 14 1 20 17 15 20 9 9 8 5
split_gain=10.2224 17.6286 13.6282 14.0128 19.3069 12.8498 12.4932 24.5262 12.1938 11.1852 11.0402 24.2538 28.0397 20.799 18.5111 18.2434 26.1596 17.7216 16.8627 14.8897 25.4787 14.7618 14.4331 23.5605 14.6733 15.2158 14.1657 14.0738 27.1516 21.6236 21.6833
threshold=3357.0000000000005 1745.0000000000002 1033.0000000000002 62.500000000000007 4711.0000000000009 32260.500000000004 8884.5000000000018 562.00000000000011 11622.000000000002 410.00000000000006 11753.500000000002 79.500000000000014 243.50000000000003 94.500000000000014 74.500000000000014 7577.0000000000009 3.5000000000000004 6.5000000000000009 18044.500000000004 5.5000000000000009 1.0000000180025095e-35 7016.5000000000009 235.50000000000003 311.50000000000006 15305.500000000002 30195.500000000004 2.5000000000000004 298.50000000000006 348.50000000000006 37.500000000000007 1.5000000000000002
decision_type=2 2 2 2 2 2 2 2 2 2 2 2 2 2 2 2 2 2 2 2 2 2 2 2 2 2 2 2 2 2 2
left_child=1 10 3 -2 -5 9 -3 8 -8 -4 -1 13 17 15 -15 16 22 -13 -18 20 -20 -14 23 24 -12 -26 -27 -23 -29 -30 -31
right_child=2 6 5 4 -6 -7 7 -9 -10 -11 11 12 21 14 -16 -17 18 -19 19 -21 -22 27 -24 -25 25 26 -28 28 29 30 -32
leaf_value=-8.2080172648138353e-05 0.03970676637018751 0.029313886272709883 -0.0078443793431115429 -0.16984921786466381 0.14867378402004647 0.19748180943984328 -0.0074951192875403888 -0.11741571654456606 0.10339933901580295 -0.20324805385173011 -0.19951887671447993 -0.020849967512341 -0.10135577593593979 0.012090686377764965 -0.20064098794234161 0.1056101475689889 -0.15843329003502041 -0.16884460183132599 0.090883820219520794 0.085668476624481849 -0.16411900396206691 0.11921187795811078 0.14233282726040772 -0.19999964263182868 0.13624069350842885 -0.20013229778356889 0.080908752784181331 -0.20000679748110969 0.11964746790624321 0.18793024338988087 -0.20234630757174804
leaf_weight=64950.323844231869 6.6782200839443275 331.72103428168339 1101.8533407887371 15.393050575628878 2.1714101959951213 3.0409228801727286 47.803253257967299 18.031152390496572 12.510688064590793 2.937216146325226 1.9184043083805651 173.01551047353132 5.8068350913235909 112.12089290397125 4.245293604937614 56.315974755969364 8.1524557688971964 8.488106823875567 6.6608670814312125 12.662103923881658 9.5158342865761352 26.360916180623462 21.091189919039607 3.7455584402778177 18.273859914974313 3.0243827550439155 4.4067076610372169 4.7622827524901394 17.638222115347165 2.0058817751705638 4.9037958321569022
leaf_count=23548598 2418 120270 399490 5584 788 1103 17334 6535 4536 1063 695 62728 2102 40651 1539 20418 2956 3079 2416 4592 3451 9555 7648 1357 6627 1095 1596 1728 6400 725 1776
internal_value=0 0.00016194 -0.00942192 -0.083592 -0.130472 -0.00779885 0.0208313 -0.015085 0.0155073 -0.00836388 3.245e-05 0.0147593 -0.00800053 0.0358563 0.00432977 0.061024 0.0329539 -0.027771 -0.0314464 0.0044516 -0.0591199 0.0503686 0.0783645 0.0353547 0.0672674 0.0871781 -0.0334723 0.0661944 0.0185117 0.0609042 -0.0890489
internal_weight=0 65865.5 1132.07 24.2427 17.5645 1107.83 410.066 78.3451 60.3139 1104.79 65455.4 505.115 242.982 262.134 116.366 145.767 89.4514 181.504 36.9913 28.8388 16.1767 61.4779 52.4601 31.3689 27.6234 25.705 7.43109 55.6711 29.3102 24.5479 6.90968
internal_count=24290853 23880407 410446 8790 6372 401656 148675 28405 21870 400553 23731732 183134 88093 95041 42190 52851 32433 65807 13415 10459 5867 22286 19018 11370 10013 9318 2691 20184 10629 8901 2501
is_linear=0
shrinkage=0.1


Tree=3
num_leaves=32
num_cat=0
split_feature=4 6 3 2 18 5 18 12 1 18 3 2 19 13 19 13 15 12 15 15 14 14 14 10 4 11 18 19 15 18 13
split_gain=56.4038 28.8632 22.6213 22.7124 37.365 23.4093 33.5733 21.1756 20.6075 20.5312 22.9652 26.7247 19.6152 19.527 17.1762 16.7685 16.3867 19.1366 16.1465 22.619 17.8768 15.6446 24.4099 15.5175 13.3929 16.8973 23.0433 15.9767 16.2264 13.9651 12.883
threshold=19475.500000000004 106.50000000000001 4766.0000000000009 8943.0000000000018 14.500000000000002 3357.0000000000005 6.5000000000000009 4883.5000000000009 50065.500000000007 238.50000000000003 8554.0000000000018 7122.0000000000009 60.500000000000007 60502.500000000007 39.500000000000007 1.5000000000000002 1.5000000000000002 5.5000000000000009 12.500000000000002 30.500000000000004 151.50000000000003 129.50000000000003 151.50000000000003 9.5000000000000018 16.500000000000004 1.5000000000000002 89.500000000000014 106.50000000000001 9.5000000000000018 200.50000000000003 8.5000000000000018
decision_type=2 2 2 2 2 2 2 2 2 2 2 2 2 2 2 2 2 2 2 2 2 2 2 2 2 2 2 2 2 2 2
left_child=2 -2 3 13 5 6 14 9 -9 24 11 -11 23 -1 15 -5 -3 -18 -14 20 -20 -16 -23 -6 -4 27 30 28 -26 -28 -27
right_child=1 16 7 4 12 -7 -8 8 -10 10 -12 -13 18 -15 21 -17 17 -19 19 -21 -22 22 -24 -25 25 26 29 -29 -30 -31 -32
leaf_value=-0.00022391515181203626 -0.13310080168797897 0.1606797950040405 -0.09624011880291565 -0.090466979850638118 -0.20025276680512905 0.18799530968759715 0.053762290345856736 0.14987043971094116 -0.19950552389617521 -0.098940817114102936 -0.10890641815952831 0.1729511863161842 -0.18722745128934395 -0.057592248564072669 -0.17755195872632631 0.17381857124862876 0.057185583804260469 -0.13635988277068925 -0.20037365157521184 -0.1696303964289774 0.1198482832847724 0.10780679281510777 -0.12461538614210797 0.077082416464078818 0.0099596824613496244 0.045127308305137025 -0.1046281654506543 -0.18085104375116379 0.10558377301018562 0.1182422678150902 0.11702553542998904
leaf_weight=67030.566906737644 8.0702815413824265 14.899291438865474 10.230535379261708 4.627941918675786 2.6191861617844543 6.1702372930012634 39.527684696600772 18.25982419715729 1.8602550327777851 6.743177531170657 27.167151378642302 7.7930356524884701 24.887963306449819 59.384846800123341 15.995308578247203 4.9885958726517856 177.59134428601828 5.2598545094951978 2.2866775322472694 10.265255133854224 7.3374021857744083 6.8746255787555155 13.18539344210876 8.7822286533773859 585.76214858739695 101.59036695110262 13.883942499029219 4.2881070042494676 18.299870426533744 3.525413228897377 33.022842694132123
leaf_count=23847847 2868 5300 3638 1647 932 2195 14062 6496 662 2401 9660 2773 8856 21128 5690 1776 63188 1870 813 3654 2610 2445 4690 3123 208404 36144 4939 1527 6512 1254 11749
internal_value=0 0.0522702 -0.000158049 -0.000360886 -0.0395519 -9.25986e-05 -0.0137141 0.0162257 0.117568 0.0137156 -0.0546248 0.0468237 -0.103729 -0.000274695 -0.072113 0.0466316 0.0598352 0.0516181 -0.133546 -0.066373 0.0437637 -0.103784 -0.0449636 0.0133717 0.017414 0.0189432 0.0487639 0.0114912 0.0128566 -0.0594967 0.0627651
internal_weight=0 205.821 68069.9 67237.5 147.549 91.3698 85.1996 832.427 20.1201 812.307 41.7034 14.5362 56.1787 67090 45.6719 9.61654 197.75 182.851 44.7773 19.8893 9.62408 36.0553 20.06 11.4014 770.603 760.373 152.023 608.35 604.062 17.4094 134.613
internal_count=24290853 73226 24217627 23921468 52493 32505 30310 296159 7158 289001 14834 5174 19988 23868975 16248 3423 70358 65058 15933 7077 3423 12825 7135 4055 274167 270529 54086 216443 214916 6193 47893
is_linear=0
shrinkage=0.1


Tree=4
num_leaves=32
num_cat=0
split_feature=3 0 21 0 4 1 19 16 15 18 4 13 16 21 20 11 12 18 0 16 16 18 0 4 13 7 7 12 18 16 7
split_gain=76.7282 41.9108 59.9814 29.7452 29.422 38.0817 28.5345 27.6924 55.6971 26.0356 29.9346 25.5544 24.2353 26.5379 25.1718 24.3113 23.7115 46.1021 40.8358 27.7165 25.5476 25.0591 27.4486 25.0405 22.8128 22.1913 21.4431 21.0508 65.5588 32.9969 26.3247
threshold=7539.0000000000009 8134.0000000000009 11544.000000000002 7826.0000000000009 660.00000000000011 5468.5000000000009 4.5000000000000009 190.00000000000003 11.500000000000002 257.00000000000006 25288.500000000004 63827.000000000007 58.500000000000007 37798.000000000007 9142.0000000000018 6.5000000000000009 136.50000000000003 21.500000000000004 8881.5000000000018 143.50000000000003 41.500000000000007 145.50000000000003 7398.5000000000009 557.00000000000011 4.5000000000000009 2176.5000000000005 137.50000000000003 70.500000000000014 49.500000000000007 62.500000000000007 346.50000000000006
decision_type=2 2 2 2 2 2 2 2 2 2 2 2 2 2 2 2 2 2 2 2 2 2 2 2 2 2 2 2 2 2 2
left_child=1 3 4 11 6 -6 26 9 25 16 -11 -1 15 14 -14 -4 19 18 -18 27 -19 23 -23 -22 -21 -9 -3 -2 29 -29 -30
right_child=7 2 12 -5 5 -7 -8 8 -10 10 -12 -13 13 -15 -16 -17 17 20 -20 24 21 22 -24 -25 -26 -27 -28 28 30 -31 -32
leaf_value=0.00029586079198419118 -0.021193449054344123 0.097940850221607506 -0.084319194627515706 -0.13911913074952195 -0.19309607691493705 0.14565914174367176 -0.17751642362075781 -0.16189469549395052 0.055315047113251949 0.10915093287732669 -0.16677363517985128 0.066767677604410339 0.021225674855824554 0.049590711981987973 -0.07657862900701512 -0.0013183710023821984 0.078798308162513875 -0.0021980159094711431 -0.20003005401890631 -0.16367062383505535 -0.011645718601429364 -0.20110035431412607 0.065891786236637703 -0.12824613939528856 0.10451757827877627 0.17974274786048841 0.044921376893625325 0.010255725837166904 -0.13629358455856952 -0.20014652335369687 -0.051715090878517479
leaf_weight=66933.360883885427 1062.202534692944 115.70235079157283 60.128421117580729 15.29462673992384 10.210696912778074 4.9163598120212546 5.0059532716404638 42.029320355068194 19.85456184335635 28.528712930841721 4.5603125154739237 57.885005188902142 64.099259492359124 117.73363159270957 44.641398000298068 85.425812686109566 88.878348077996634 407.3483223994117 5.5824206655379376 3.6238635233603445 28.974644755711779 4.5823699166066971 24.110697072785115 50.551717978960369 25.42289237305522 1.991391273215412 223.88576260578702 129.06735953579482 80.918533540418139 7.9105534182017427 67.494050470442744
leaf_count=23285934 369539 40250 20919 5321 3552 1711 1739 14616 6911 9924 1588 20137 22301 40959 15531 29721 30918 141716 1944 1261 10078 1596 8386 17588 8844 693 77891 44902 28150 2752 23481
internal_value=0 0.000581399 0.0243839 0.000321462 0.0535 -0.0829991 0.059492 -0.0189011 -0.0837277 -0.016851 0.0711232 0.000353297 -0.00376889 0.0166927 -0.018926 -0.035606 -0.0183162 -0.0019046 0.0623202 -0.0255887 -0.0136717 -0.0568596 0.0232523 -0.0857639 0.0710585 -0.14644 0.0629858 -0.0276719 -0.0517842 -0.00189513 -0.0978296
internal_weight=0 67738.3 731.75 67006.5 359.721 15.1271 344.594 2083.63 63.8753 2019.76 33.089 66991.2 372.029 226.474 108.741 145.554 1986.67 610.029 94.4608 1376.64 515.568 108.219 28.6931 79.5264 29.0468 44.0207 339.588 1347.59 285.39 136.978 148.413
internal_count=24290853 23565966 254574 23311392 125143 5263 119880 724887 22220 702667 11512 23306071 129431 78791 37832 50640 691155 212226 32862 478929 179364 37648 9982 27666 10105 15309 118141 468824 99285 47654 51631
is_linear=0
shrinkage=0.1


Tree=5
num_leaves=32
num_cat=0
split_feature=13 0 1 0 15 18 12 16 3 9 16 16 18 19 18 13 13 3 15 19 9 5 14 5 15 9 7 8 18 0 0
split_gain=49.7915 44.5413 54.3877 47.7763 38.6752 36.5135 44.7256 46.6242 30.8911 39.0384 27.0952 38.2821 25.7425 32.7139 28.5993 25.6965 24.2066 23.2638 36.3399 29.3136 29.1552 25.1659 22.6595 26.0204 22.3302 22.3035 21.5379 21.3752 30.1647 31.1052 30.6028
threshold=62774.500000000007 7942.5000000000009 5310.5000000000009 134.50000000000003 54.500000000000007 224.50000000000003 66.500000000000014 58.500000000000007 4983.0000000000009 27.500000000000004 20.500000000000004 36.500000000000007 49.500000000000007 53.500000000000007 37.500000000000007 2.5000000000000004 10.500000000000002 26794.000000000004 21.500000000000004 66.500000000000014 647.50000000000011 7147.0000000000009 924.00000000000011 10.500000000000002 1.5000000000000002 1035.0000000000002 3.5000000000000004 14.500000000000002 38.500000000000007 9773.0000000000018 11951.500000000002
decision_type=2 2 2 2 2 2 2 2 2 2 2 2 2 2 2 2 2 2 2 2 2 2 2 2 2 2 2 2 2 2 2
left_child=1 3 27 8 5 6 -4 24 -1 -10 -7 -12 13 -11 17 -6 -17 19 20 25 -19 -21 23 -2 -8 -15 -18 -3 -29 -30 -31
right_child=22 2 4 -5 15 10 7 -9 9 12 11 -13 -14 14 -16 16 26 18 -20 21 -22 -23 -24 -25 -26 -27 -28 28 29 30 -32
leaf_value=0.00020035501316545149 0.17688401663296921 -0.024256483052708253 0.043354365993331617 0.012691268453942698 -0.014284544330360123 -0.16359165351287874 -0.035708138369848701 0.069591346592543998 -0.17707378569373694 0.0045376249823570244 0.10054255201368617 -0.11912300563279266 0.024529379594178731 -0.19253383475685593 -0.20008260718608364 -0.12801322600593329 -0.20412460879933289 -0.15817847725107842 -0.0062011450905297893 -0.20226153170404124 0.0022735068553727355 0.0012840810366207354 -0.039942884732481886 -0.17655860747438581 0.10547618984408756 0.14190292968339388 0.10050347166314307 -0.0045275021577001829 -0.14636379997561985 -0.037907707492651647 -0.20183055032023095
leaf_weight=64943.697082588755 2.2938501993194249 436.57556563612889 361.21009286140907 3101.119518797932 661.35442062400398 18.815628274300252 227.24896228133002 60.393082428781781 15.876504926593041 187.17836887706653 15.463693336118014 16.292412832175614 114.14838903980854 14.361320031399375 11.991318929765837 38.157254201709293 3.0217218793695784 53.259906521387165 42.65888186742086 6.3244930997025213 14.382949504302813 153.48652489623055 128.91827751600067 22.653728752746247 11.783509625471195 2.3156206160783759 10.007609168766065 67.627877610269934 53.902790557738626 108.7019458009745 12.721813683630897
leaf_count=22244551 786 149536 123722 1062201 226524 6448 77836 20688 5435 64111 5295 5577 39096 4917 4108 13069 1036 18244 14612 2167 4926 52575 44159 7759 4036 793 3429 23156 18468 37236 4357
internal_value=0 0.000123555 -0.0142109 0.000562661 -0.00310153 0.0133955 0.0196646 -0.00891347 -1.10495e-05 -0.0222996 -0.0684992 -0.0121565 -0.0182049 -0.0282428 -0.0487789 -0.0195677 -0.0878285 -0.0424526 -0.0784793 -0.0199365 -0.124061 -0.0067712 -0.0568244 -0.144061 -0.0287482 -0.146097 0.0298551 -0.0374872 -0.0612621 -0.083146 -0.0550822
internal_weight=0 70764.1 2103.28 68660.8 1423.75 711.207 660.636 299.426 65559.7 615.984 50.5717 31.7561 600.108 485.959 298.781 712.541 51.1866 286.79 110.302 176.488 67.6429 159.811 153.866 24.9476 239.032 16.6769 13.0293 679.53 242.954 175.327 121.424
internal_count=24290853 24238149 720413 23517736 487660 243602 226282 102560 22455535 210984 17320 10872 205549 166453 102342 244058 17534 98234 37782 60452 23170 54742 52704 8545 81872 5710 4465 232753 83217 60061 41593
is_linear=0
shrinkage=0.1


Tree=6
num_leaves=32
num_cat=0
split_feature=0 13 11 5 21 20 5 20 20 15 5 11 21 14 0 11 10 15 0 14 15 2 10 13 12 21 2 5 15 15 15
split_gain=91.3694 99.1517 80.985 57.245 36.0403 32.749 30.6939 26.637 40.853 32.4048 30.1703 28.0467 27.1029 26.6806 33.6194 30.112 25.7473 24.494 42.9192 33.8947 31.8301 29.9763 26.4708 26.4151 27.2606 25.6642 34.1826 24.2728 23.5653 23.2768 22.289
threshold=134.50000000000003 2.5000000000000004 22.500000000000004 1.0000000180025095e-35 34.500000000000007 7.5000000000000009 1.0000000180025095e-35 3780.0000000000005 49.500000000000007 251.50000000000003 67698.000000000015 28.500000000000004 47272.500000000007 4.5000000000000009 2084.5000000000005 793.50000000000011 6871.5000000000009 86.500000000000014 33795.500000000007 112.50000000000001 57.500000000000007 844.50000000000011 217.50000000000003 177.50000000000003 17.500000000000004 12641.000000000002 3.5000000000000004 12.500000000000002 69930.500000000015 23.500000000000004 15.500000000000002
decision_type=2 2 2 2 2 2 2 2 2 2 2 2 2 2 2 2 2 2 2 2 2 2 2 2 2 2 2 2 2 2 2
left_child=1 16 6 28 5 -4 -2 8 10 11 -6 30 -13 -10 15 -15 -1 18 19 -8 22 -22 29 -21 25 -25 27 -27 -3 -20 -9
right_child=2 3 4 -5 7 -7 17 9 13 -11 -12 12 -14 14 -16 -17 -18 -19 20 23 21 -23 -24 24 -26 26 -28 -29 -30 -31 -32
leaf_value=3.0879714989155833e-05 -0.15175090883928208 0.0034174201289268293 -0.025734687734613487 0.027831663103855736 -0.055743135781036707 0.036617127805278114 -0.0029586554963300748 0.14912243361380764 -0.176759622234545 -0.13605067211583502 0.12347074479065075 -0.0038433256592411767 0.14505783022595128 0.074493971984797139 -0.20026018769917431 -0.20145818735883828 0.11053621444477718 0.014480207528108338 0.013162594651799524 -0.11609888440688021 0.056115671174823571 -0.19666654842753939 -0.20234839794362569 0.062558287213662786 -0.069376283004288636 -0.170795286954317 0.072668937085744387 0.10881719552924961 0.097393997706058028 -0.097523162831583798 -0.14566239584785146
leaf_weight=61473.433139489331 14.184250993363092 2152.414052429318 949.39716602742556 2060.15715581517 266.59859781998966 92.438119794358499 3576.8936281542046 2.936893584206703 48.900822037889156 21.785549300228013 9.736764869769102 129.2481674515293 13.501126045826821 17.083314000890827 11.456416574539615 5.1453226468292987 21.091858199215494 595.58849285868928 26.458812930504791 41.55884512985358 32.224537515634438 5.4905119435279621 16.877872522425605 46.389161587576382 77.427736785197339 19.026085010264072 14.180518124368971 3.7099933668505392 27.017825626273407 67.391247553168796 20.253601822099881
leaf_count=20779891 4795 727578 320927 696392 90118 31245 1209088 990 16530 7362 3291 43690 4563 5774 3872 1739 7130 201331 8943 14049 10893 1857 5704 15680 26174 6434 4792 1255 9133 22781 6852
internal_value=0 0.00108854 -0.0116807 0.01588 -0.0311133 -0.0202024 -0.00487759 -0.0519078 -0.0678721 -0.0213848 -0.0494285 -0.00633079 0.0102396 -0.129585 -0.0611021 0.0106186 6.87817e-05 -0.00441702 -0.00728261 -0.00521084 -0.0600274 0.0193159 -0.0870526 -0.0450335 -0.026659 0.0130442 -0.0491749 -0.125169 0.00458242 -0.0663179 -0.10833
internal_weight=0 65734.1 6125.88 4239.59 1588.48 1041.84 4537.4 546.647 358.921 187.725 276.335 165.94 142.749 82.5859 33.6851 22.2286 61494.5 4523.22 3927.63 3779.19 148.443 37.715 110.728 202.292 160.733 83.3058 36.9166 22.7361 2179.43 93.8501 23.1905
internal_count=24290853 22220124 2070729 1433103 536953 352172 1533776 184781 121324 63457 93409 56095 48253 27915 11385 7513 20787021 1528981 1327650 1277472 50178 12750 37428 68384 54335 28161 12481 7689 736711 31724 7842
is_linear=0
shrinkage=0.1


Tree=7
num_leaves=32
num_cat=0
split_feature=0 4 12 12 11 10 14 12 4 11 18 6 10 19 0 16 4 18 4 19 12 12 6 18 12 0 2 4 20 6 9
split_gain=30.0651 114.161 186.13 169.745 112.844 59.8835 54.8035 42.1116 31.7634 31.3269 29.2616 38.2084 28.8618 27.4453 25.9943 41.19 25.0477 60.2321 41.4985 33.8657 24.8381 34.4261 32.1687 32.12 31.3624 25.3353 24.6734 24.5699 25.7588 24.2554 23.8939
threshold=134.50000000000003 1.0000000180025095e-35 1672.5000000000002 1574.0000000000002 102.50000000000001 7010.0000000000009 72276.500000000015 5252.0000000000009 74.500000000000014 1874.0000000000002 48.500000000000007 71.500000000000014 5476.5000000000009 2616.0000000000005 7743.5000000000009 77.500000000000014 6053.0000000000009 53.500000000000007 21932.500000000004 62.500000000000007 5191.5000000000009 3419.5000000000005 99.500000000000014 1.0000000180025095e-35 4506.0000000000009 4.5000000000000009 129.50000000000003 6187.5000000000009 111.50000000000001 4.5000000000000009 56.500000000000007
decision_type=2 2 2 2 2 2 2 2 2 2 2 2 2 2 2 2 2 2 2 2 2 2 2 2 2 2 2 2 2 2 2
left_child=1 2 -1 16 14 8 9 29 10 -4 13 -12 -11 20 15 -2 -3 18 27 -19 21 22 -5 24 -23 -24 -6 28 -18 -8 -16
right_child=4 3 6 5 26 -7 7 -9 -10 12 11 -13 -14 -15 30 -17 17 19 -20 -21 -22 23 25 -25 -26 -27 -28 -29 -30 -31 -32
leaf_value=0.00010538618567913752 0.012568003165290192 -0.0014887273825188885 0.047536009441581054 -0.080776157013072336 0.048512969757494383 -0.0068825250400602628 0.1155541379968112 -0.12532739004496116 -0.19143245979997472 -0.178481440855324 0.16118217733726262 -0.20069843082984695 0.0052370084903844774 -0.20203922273401603 -0.0064662523329809263 -0.021310725464389484 -0.19947113853957496 -0.16282818389849038 0.027170150555461622 -0.050032400653493729 -0.044275562366080906 -0.201607748564262 0.08731456060980583 -0.19048377217447737 -0.0081602612896358312 -0.18388458528145768 -0.030942530557191733 -0.016518682342104112 0.16007982580020211 -0.099249867250628565 -0.20240428323924098
leaf_weight=59725.243597500717 2485.7666637267466 5185.0592117528795 1127.7844805767818 67.483615053293761 680.07511027509463 386.6125827562646 16.376776431221518 34.802704154979438 16.151728020427981 10.44209359429078 13.099502687458882 3.7536622211337081 47.216482667514356 12.086888177786021 2025.3910820554956 419.42212825277238 12.981381658115422 31.969353534048423 256.11642913534888 159.01652943639783 973.98379167829989 11.997701155487446 23.474727788474414 43.96196433424484 27.79965268203523 4.0370907786418675 41.465286857681349 813.87225254270015 2.353817354887723 7.7419418839272103 6.242899563163518
leaf_count=19428210 808600 1686661 366857 21955 221224 125760 5328 11319 5253 3400 4261 1221 15358 3931 658846 136435 4225 10395 83313 51732 316826 3902 7633 14302 9045 1316 13488 264743 764 2520 2030
internal_value=0 -0.00057454 0.000902916 -0.0117704 0.00700769 -0.0411021 0.0391816 -0.0549497 -0.0521469 0.0438603 -0.050243 0.0805814 -0.0280348 -0.0521359 0.00160886 0.00767693 -0.00457776 -0.0171271 -0.00801419 -0.0689134 -0.0505641 -0.0848283 -0.0436204 -0.131564 -0.0664788 0.0475187 0.0439468 -0.0188815 -0.144283 0.0466035 -0.00706834
internal_weight=0 69015.4 60969.6 8045.81 5658.36 1584.44 1244.36 58.9214 1197.83 1185.44 1181.68 16.8532 57.6586 1164.83 4936.82 2905.19 6461.37 1276.31 1085.32 190.986 1152.74 178.755 94.9954 83.7593 39.7974 27.5118 721.54 829.207 15.3352 24.1187 2031.63
internal_count=24290853 22450230 19832992 2617238 1840623 515405 404782 19167 389645 385615 384392 5482 18758 378910 1605911 945035 2101833 415172 353045 62127 374979 58153 30904 27249 12947 8949 234712 269732 4989 7848 660876
is_linear=0
shrinkage=0.1


Tree=8
num_leaves=32
num_cat=0
split_feature=6 11 5 12 13 0 5 14 11 14 0 3 21 11 15 1 0 5 12 12 6 17 12 18 21 17 18 6 17 14 8
split_gain=14.4958 124.499 119.949 71.4047 50.11 47.6412 37.4714 127.626 82.8923 55.8726 38.0925 37.1625 36.9049 41.3584 34.0702 31.6016 30.4124 28.9084 29.6948 27.9306 43.2945 51.0309 60.9326 35.7485 38.5388 31.5633 30.234 46.8349 41.1372 26.4432 44.5923
threshold=53.500000000000007 1.0000000180025095e-35 1.0000000180025095e-35 4634.5000000000009 513.50000000000011 864.00000000000011 1.0000000180025095e-35 2894.0000000000005 18374.000000000004 5.5000000000000009 95.500000000000014 189.50000000000003 29.500000000000004 3180.5000000000005 224.50000000000003 153.50000000000003 7501.5000000000009 66.500000000000014 911.50000000000011 2612.5000000000005 9.5000000000000018 3234.5000000000005 8110.5000000000009 1.5000000000000002 3.5000000000000004 384.50000000000006 1.0000000180025095e-35 27.500000000000004 1333.5000000000002 7531.0000000000009 133.50000000000003
decision_type=2 2 2 2 2 2 2 2 2 2 2 2 2 2 2 2 2 2 2 2 2 2 2 2 2 2 2 2 2 2 2
left_child=4 2 -2 16 -1 6 8 9 11 12 17 19 13 -8 -15 -3 -4 -11 -19 -6 29 22 23 25 -25 -22 27 28 -24 -21 -31
right_child=1 15 3 -5 5 -7 7 -9 -10 10 -12 -13 -14 14 -16 -17 -18 18 -20 20 21 -23 26 24 -26 -27 -28 -29 -30 30 -32
leaf_value=0.00012789810975925042 -0.0036543167139924944 -0.0026512895068072132 0.038227477143961387 0.13933990241078237 0.00017544738324136403 -0.11278366374527148 0.065119094828468921 0.12513709608860044 0.028035380598009908 0.033385752708634926 -0.025518033268166304 -0.18533051587536922 0.047811059769977023 -0.068932248106241586 -0.2024860657057056 0.018272564399353076 -0.20016172792433348 0.11674769652545321 -0.19452209710763246 -0.083931619125067039 -0.10929119473633807 0.068621271977871962 -0.049091843701466187 -0.20084837180892079 -0.065891163287810903 -0.00044506577231080767 0.036920450981865353 -0.20166106231013031 0.12175695404020798 -0.028830330502712401 -0.13339356274625763
leaf_weight=67057.44782942954 181.4880908264895 4486.68485757913 61.434104153100634 168.25290581613808 280.18622724100715 47.97230611598934 12.968749028630553 80.865365985126118 297.29520399385365 315.50384645492886 238.85490095804562 15.211126468144355 20.713784260791726 43.314933963585645 34.169602333568037 860.20271009282442 5.8621890295180483 4.2512008226476601 10.982385482901007 189.47645498765633 35.869953587185591 65.41554271383211 53.752368438988924 30.345505693461746 69.899650867562741 103.55027679761406 152.70214605802903 14.400190602755172 19.101393774151802 403.93630399074755 45.365694592532236
leaf_count=21601073 58464 1445287 19796 54197 90261 15449 4178 26047 95770 101638 76940 4899 6672 13954 11004 277094 1886 1370 3537 61033 11556 21072 17315 9774 22519 33352 49190 4639 6153 130119 14615
internal_value=0 0.00481943 0.0574438 0.104519 -0.000398872 -0.014058 -0.012192 0.00636492 -0.0201477 -0.00774367 0.00491268 -0.0298317 -0.0725917 -0.100164 -0.127828 0.000714922 0.0174614 0.0268894 -0.107657 -0.028216 -0.0349357 -0.0142326 -0.025533 -0.0611977 -0.106744 -0.0284489 0.0100885 -0.0368698 -0.00429731 -0.0526007 -0.039388
internal_weight=0 5763.92 417.037 235.549 69643.6 2586.11 2538.13 761.625 1776.51 680.759 569.592 1479.21 111.167 90.4533 77.4845 5346.89 67.2963 330.737 15.2336 1464 1183.82 545.037 479.621 239.665 100.245 139.42 239.956 87.254 72.8538 638.778 449.302
internal_count=24290853 1856724 134343 75879 22434129 833056 817607 245340 572267 219293 183485 476497 35808 29136 24958 1722381 21682 106545 4907 471598 381337 175570 154498 77201 32293 44908 77297 28107 23468 205767 144734
is_linear=0
shrinkage=0.1


Tree=9
num_leaves=32
num_cat=0
split_feature=11 2 4 6 14 4 17 9 19 5 0 6 1 5 4 1 17 19 2 4 4 1 20 11 2 9 2 4 20 3 3
split_gain=11.6707 30.1868 26.3193 43.0993 23.0059 19.5079 31.1183 31.602 19.2949 18.4274 36.5396 22.0856 26.237 20.8874 18.9826 18.0715 18.8713 33.8154 16.6396 33.8784 25.1098 31.0185 29.9103 22.4492 21.2407 28.3864 31.1087 21.1788 20.9221 19.9847 18.9211
threshold=13412.000000000002 4.5000000000000009 1.0000000180025095e-35 29.500000000000004 144.50000000000003 159.50000000000003 67.500000000000014 20901.500000000004 22.500000000000004 104.50000000000001 18.500000000000004 83.500000000000014 5.5000000000000009 110.50000000000001 152.50000000000003 20.500000000000004 378.50000000000006 22.500000000000004 49.500000000000007 26.500000000000004 190.50000000000003 6.5000000000000009 2019.0000000000002 15680.500000000002 78.500000000000014 40578.000000000007 154.50000000000003 192.50000000000003 18.500000000000004 293.50000000000006 309.50000000000006
decision_type=2 2 2 2 2 2 2 2 2 2 2 2 2 2 2 2 2 2 2 2 2 2 2 2 2 2 2 2 2 2 2
left_child=-1 2 3 -2 -5 9 7 -7 18 -4 -11 12 13 -12 -13 16 -6 -18 20 -20 21 28 23 -22 -21 30 27 -27 -3 -30 -26
right_child=1 8 5 4 15 6 -8 -9 -10 10 11 14 -14 -15 -16 -17 17 -19 19 24 22 -23 -24 -25 25 26 -28 -29 29 -31 -32
leaf_value=0.00017641634471389725 -0.17856966413044298 -0.20020718813341035 0.019345882497087828 -0.20291438378452975 0.042517873650188075 0.11104707336870499 -0.20062189193508415 -0.14474536186502779 0.096101348186996324 0.1357174745988213 0.12216448143450963 -0.014733449861457408 -0.20069929588624366 -0.20007744334928934 0.17933127952807593 -0.20011048158157507 -0.1581411813518305 0.13832268223541164 -0.20042122822944031 0.058356192836701286 0.0081807665774752038 0.077951831818375561 0.10893834979451017 -0.19948136666955751 -0.12832748668067673 -0.18483138564380108 0.12544333770559601 0.10237465919607935 -0.042848853314062046 0.19465815381872253 0.04111452394717649
leaf_weight=73994.257452489444 20.10018049919745 8.3686806196346861 583.56133063735615 6.0437595937401047 52.646994044771418 11.649461500695912 11.680644904437939 8.2506748822052014 11.852510398952289 16.094228620524518 6.2013783650472778 262.03339728957508 13.745680863736196 2.9771840723697096 5.1392305775079867 4.2668362224358125 13.544451634690633 5.3739477030467233 8.0809368570335192 52.864661893385346 6.5289130463497704 22.383699687197804 4.8516175240511066 25.687435806554276 26.996847446309403 7.396120987483302 18.428008656599559 3.9327684110612608 256.48961021078867 3.5923975277692071 8.7186160880373773
leaf_count=23811535 6470 2693 187792 1945 16943 3750 3755 2657 3814 5178 1994 84328 4425 958 1654 1373 4357 1729 2596 17015 2099 7205 1560 8271 8687 2382 5927 1265 82535 1156 2805
internal_value=0 -0.00876403 0.000844585 -0.0473605 -0.0151493 0.00618008 -0.0710559 0.00499452 -0.0298562 0.00892149 -0.0109461 -0.0190828 -0.113279 0.0176412 -0.0110005 -0.00018458 0.0117353 -0.0739279 -0.0331422 -0.00232036 -0.0450251 -0.0351458 -0.122538 -0.157397 0.0112074 -0.0268621 0.0452753 -0.0851292 -0.044576 -0.0395683 -0.0869645
internal_weight=0 1489.48 1023.31 101.976 81.876 921.333 31.5808 19.9001 466.173 889.752 306.191 290.097 22.9242 9.17856 267.173 75.8322 71.5654 18.9184 454.32 126.418 327.902 290.834 37.068 32.2163 118.337 65.4724 29.7569 11.3289 268.451 260.082 35.7155
internal_count=24290853 479318 329308 32817 26347 296491 10162 6407 150010 286329 98537 93359 7377 2952 85982 24402 23029 6086 146196 40677 105519 93589 11930 10370 38081 21066 9574 3647 86384 83691 11492
is_linear=0
shrinkage=0.1


Tree=10
num_leaves=32
num_cat=0
split_feature=16 13 8 16 11 16 4 13 11 3 15 15 2 3 1 16 16 1 8 1 1 2 4 3 14 16 16 1 2 9 9
split_gain=11.4292 43.8677 39.4862 24.0855 22.0156 20.4816 69.212 196.202 33.5228 30.2116 28.6737 24.3975 27.7934 35.7307 26.8059 21.64 20.9669 33.6352 26.8876 20.8734 20.5314 19.5007 29.0404 32.3006 25.7852 20.8547 24.7821 21.9303 19.5376 19.181 18.6888
threshold=7513.0000000000009 2.5000000000000004 8.5000000000000018 9558.5000000000018 346.50000000000006 86.500000000000014 1.0000000180025095e-35 485.00000000000006 57.500000000000007 12.500000000000002 251.50000000000003 2078.5000000000005 13.500000000000002 3.5000000000000004 22.500000000000004 56.500000000000007 106.50000000000001 56594.500000000007 29.500000000000004 765.00000000000011 544.00000000000011 7.5000000000000009 1.0000000180025095e-35 1.5000000000000002 9393.5000000000018 10467.000000000002 9465.0000000000018 467.00000000000006 20.500000000000004 1.5000000000000002 3.5000000000000004
decision_type=2 2 2 2 2 2 2 2 2 2 2 2 2 2 2 2 2 2 2 2 2 2 2 2 2 2 2 2 2 2 2
left_child=5 21 -3 4 -4 15 11 8 -8 19 -11 12 14 -14 -7 -1 18 30 -15 20 -10 24 23 -23 -2 26 27 -24 29 -28 -18
right_child=1 2 3 -5 -6 6 7 -9 9 10 -12 -13 13 16 -16 -17 17 -19 -20 -21 -22 22 25 -25 -26 -27 28 -29 -30 -31 -32
leaf_value=-6.1782704836366598e-05 0.01166318338460957 -0.20109572775669726 0.13351331044876744 -0.2014507046391513 -0.20077590268453527 0.12810899585400248 0.02265861862678218 -0.050815992854347319 -0.00096138792350383088 -0.13293963391543362 0.13144670986080817 0.03933087834539814 -0.089533292004130113 0.075979815886669633 0.028217379842647251 -0.017456963716233578 0.0047316507448082121 -0.19561485177214485 -0.057453852696157603 0.081868282067749598 -0.1693293832125165 0.048955399967191116 -0.063183662276961414 -0.074586607236799329 -0.032774844387319577 -0.052367436659023228 0.091077408628203751 0.022647335749419864 -0.20013348976458795 -0.12103697493868459 -0.16730541223882331
leaf_weight=69203.900919450098 659.68849514746398 22.260961833992042 10.367552332580091 4.3901077367190728 2.4322779839858404 31.17087921185157 1279.022373277352 637.11658289498882 738.91091349777707 29.140554156037979 4.7741529752966008 649.50990332022775 41.089998075389303 76.420906736719189 194.43265071316273 722.62038998847129 361.75705507886596 8.8441600876976718 18.820689850559575 30.440365313435905 7.3143683363450682 24.88936938799452 49.903914601309225 141.36315221502446 162.7987896517734 62.352471737394808 58.01075582249905 73.778249594266526 2.6819793267641208 4.6012927324045441 6.4266664065653449
leaf_count=22318029 212750 7177 3342 1418 785 10052 412488 205470 238295 9397 1540 209463 13259 24643 62708 233043 116653 2852 6069 9818 2358 8027 16093 45587 52499 20111 18708 23797 865 1484 2073
internal_value=0 -0.00937052 -0.113181 0.000667433 0.0699903 0.000161932 0.00701791 -0.0022364 0.0125754 -0.0033349 -0.0957221 0.0251918 0.0127642 -9.22445e-05 0.0420191 -0.000241544 0.00768961 -0.00290047 0.049612 0.000699378 -0.0026117 -0.00606793 -0.0236673 -0.0560914 0.00286735 -0.00221893 0.0143275 -0.0119842 0.064168 0.0754893 0.00172873
internal_weight=0 1279.52 39.4509 17.1899 12.7998 74041.7 4115.19 2726.72 2089.6 810.58 33.9147 1388.47 738.963 513.359 225.604 69926.5 472.269 377.028 95.2416 776.666 746.225 1240.07 417.581 166.253 822.487 251.329 188.976 123.682 65.294 62.612 368.184
internal_count=24290853 412643 12722 5545 4127 23878210 1327138 879366 673896 261408 10937 447772 238309 165549 72760 22551072 152290 121578 30712 250471 240653 399921 134672 53614 265249 81058 60947 39890 21057 20192 118726
is_linear=0
shrinkage=0.1


Tree=11
num_leaves=32
num_cat=0
split_feature=5 10 15 10 11 19 19 15 4 10 3 12 13 21 9 18 3 19 11 5 9 7 5 21 12 18 17 15 3 3 21
split_gain=20.8234 42.8988 60.0855 39.3944 39.2596 33.7944 48.5446 34.8432 33.5969 32.6991 32.533 29.1107 25.1588 26.1881 24.779 30.1808 27.894 24.638 23.6228 22.1965 20.6708 24.3799 20.381 20.2357 23.8024 22.2409 22.0108 19.6706 19.6106 19.4525 17.9698
threshold=115.50000000000001 6355.0000000000009 70.500000000000014 3509.5000000000005 94.500000000000014 52.500000000000007 6.5000000000000009 117.50000000000001 9.5000000000000018 20.500000000000004 12.500000000000002 58.500000000000007 1.0000000180025095e-35 59175.500000000007 2458.0000000000005 1.0000000180025095e-35 18121.500000000004 106.50000000000001 148.50000000000003 61561.000000000007 801.50000000000011 320.50000000000006 231.50000000000003 103.50000000000001 2539.5000000000005 2.5000000000000004 1267.5000000000002 40.500000000000007 10.500000000000002 1.0000000180025095e-35 1.5000000000000002
decision_type=2 2 2 2 2 2 2 2 2 2 2 2 2 2 2 2 2 2 2 2 2 2 2 2 2 2 2 2 2 2 2
left_child=3 5 -3 -1 8 6 7 12 -5 27 18 30 13 -2 15 16 -8 -11 -4 20 -17 -22 23 24 -9 29 -27 -7 -20 -26 -10
right_child=1 2 10 4 -6 9 14 22 11 17 -12 -13 -14 -15 -16 19 -18 -19 28 -21 21 -23 -24 -25 25 26 -28 -29 -30 -31 -32
leaf_value=-0.00010488969721875814 0.029572157826268458 0.086092224296632575 -0.1993912605962386 -0.11107781270108796 -0.010374497995644849 0.024750851665046179 -0.04112172073513104 -0.19239122611441539 0.0074865916275619268 -0.18274992472638857 -0.16146707774292959 -0.19981532531939819 0.0031567504660005435 -0.11611881070241754 0.11739250310258736 -0.015740404898932494 -0.20162209744989981 -0.015624086926652736 0.017021203066937815 -0.20223873790528107 -0.025128522863408165 -0.18959231893801562 -0.0085740267157809486 -0.027884206117687233 -0.20133106220467872 -0.16288160262998372 0.17331360508865087 0.08319707937075338 0.18554823046212493 0.16470962638720288 -0.19996793956234091
leaf_weight=67653.550095807266 541.04883433680516 145.92714795842767 4.9876930350437751 74.804365109768696 1626.3274139734713 512.18991524247394 23.5732977965381 18.967988270800561 79.835251058801077 11.13045791472541 10.390229952579828 8.2847326593473536 3188.8580272125982 12.625741635216398 10.790418744902125 333.09077718763729 20.028001719736494 42.513435834232951 517.60686970571987 7.0898033385165027 21.344771432282869 15.601716999663038 472.04317063954659 111.60418678799761 1.8484351957449705 13.367537837446433 2.2794603642541906 64.878478132246528 6.9981537704588836 6.7665706118568778 4.4058160572312763
leaf_count=21747733 173926 46914 1600 24048 522797 164647 7578 6097 25662 3580 3342 2663 1025078 4058 3469 107074 6439 13668 166384 2279 6862 5014 151746 35880 595 4293 732 20855 2250 2174 1416
internal_value=0 0.00559313 0.029158 -0.000492696 -0.01512 0.00261734 -0.000241628 0.00291844 -0.0612433 0.0243796 0.0137719 -0.0209536 0.00657318 0.0262499 -0.0322394 -0.036077 -0.114847 -0.0503007 0.01721 -0.0269701 -0.023612 -0.0945781 -0.0189008 -0.050384 -0.10847 -0.042861 -0.113905 0.0313218 0.0192693 0.086172 -0.0033633
internal_weight=0 6117.55 685.91 69447.2 1793.66 5431.64 4800.93 4369.41 167.33 630.712 539.983 92.5258 3742.53 553.675 431.519 420.728 43.6013 53.6439 529.593 377.127 370.037 36.9465 626.877 154.834 43.23 24.262 15.647 577.068 524.605 8.61501 84.2411
internal_count=24290853 1966534 220490 22324319 576586 1746044 1543294 1404579 53789 202750 173576 29741 1203062 177984 138715 135246 14017 17248 170234 121229 118950 11876 201517 49771 13891 7794 5025 185502 168634 2769 27078
is_linear=0
shrinkage=0.1


Tree=12
num_leaves=32
num_cat=0
split_feature=10 6 11 17 17 13 4 17 11 7 17 17 11 17 1 13 6 18 18 1 18 4 11 5 4 18 5 14 2 10 4
split_gain=10.4893 42.6117 38.7754 27.0888 30.158 28.0496 25.0703 25.7907 27.9807 20.603 23.3091 20.0553 19.9804 32.6462 29.4143 32.0175 24.1838 22.2475 19.3357 20.9393 18.458 22.4566 25.3849 18.2414 31.6426 28.1924 18.2402 25.2811 23.3511 20.0461 28.9213
threshold=7327.5000000000009 148.50000000000003 408.50000000000006 45.500000000000007 502.50000000000006 1404.5000000000002 1.0000000180025095e-35 182.50000000000003 1225.5000000000002 1.0000000180025095e-35 30.500000000000004 743.00000000000011 295.00000000000006 13150.500000000002 159.50000000000003 1074.0000000000002 31.500000000000004 2736.5000000000005 5.5000000000000009 4.5000000000000009 1.5000000000000002 5915.5000000000009 346.50000000000006 252.50000000000003 16.500000000000004 10.500000000000002 202.50000000000003 10.500000000000002 400.50000000000006 8266.0000000000018 17.500000000000004
decision_type=2 2 2 2 2 2 2 2 2 2 2 2 2 2 2 2 2 2 2 2 2 2 2 2 2 2 2 2 2 2 2
left_child=12 6 9 -4 18 11 7 -2 -9 -3 -11 -6 -1 14 20 17 -15 -16 19 -5 21 22 -14 24 25 -20 28 -28 29 30 -8
right_child=1 2 3 4 5 -7 26 8 -10 10 -12 -13 13 16 15 -17 -18 -19 23 -21 -22 -23 -24 -25 -26 -27 27 -29 -30 -31 -32
leaf_value=-0.00011633117284425594 -0.13742117880060495 -0.064972146390824437 -0.15580122115403025 0.053185387698363576 -0.20460744747594983 -0.12986885542429721 -0.066886016730891881 -0.10175024450960182 0.039944208314729737 0.1440077386430115 -0.20412768060491571 0.091729385560604684 -0.18289059473829433 -0.20147225538916677 -0.011948856329036799 -0.17780093300295785 0.091765067975938253 -0.1998071336633982 0.099031651854342428 -0.13031355304284373 0.017955592473725576 0.01971990225137138 -0.012195620138752519 0.044103360045578084 -0.16175668507970048 -0.20113508262541493 -0.12200293172741877 0.10295012150121907 -0.20285827754383942 0.0080401794141374688 0.003946224859048433
leaf_weight=71259.641858934832 25.287808289867826 96.652128595975228 12.952426668140104 9.5981729733757692 2.815759085584431 32.584860430972185 94.790965224674437 23.151452555437572 35.013597638113424 2.1238135700114098 20.362293814076111 12.088612655177711 8.8846730346558598 2.944162016385234 201.36316237956635 13.312665312900206 62.869142655574251 6.5078022402594788 15.780138500733303 17.661330630071461 1336.1637081980734 299.18616255256347 449.0791403465264 118.1037014714675 12.950699616689233 3.9029012192040673 5.8546369294635943 34.060288362787105 5.576374390278942 1078.9306528495508 147.09636497346219
leaf_count=22942605 8141 31125 4169 3090 907 10491 30521 7452 11271 683 6554 3894 2857 944 64833 4286 20243 2094 5079 5684 430195 96325 144585 38018 4173 1256 1886 10964 1796 347373 47359
internal_value=0 -0.00752644 -0.0384442 -0.015167 -0.00708868 -0.0778914 9.9285e-05 -0.0531097 -0.0164545 -0.0850303 -0.171246 0.0357449 0.00018472 0.00919731 0.00722249 -0.0274585 0.0786471 -0.0178301 0.0118013 -0.0657029 0.010887 -0.00158727 -0.0155072 0.0258173 -0.0403613 0.0395123 0.00334924 0.0699545 0.0013449 0.00220703 -0.0238116
internal_weight=0 1807.34 357.577 238.439 225.486 47.4892 1449.76 83.4529 58.1651 119.138 22.4861 14.9044 73640 2380.31 2314.5 221.184 65.8133 207.871 177.997 27.2595 2093.31 757.15 457.964 150.737 32.6337 19.683 1366.31 39.9149 1326.39 1320.82 241.887
internal_count=24290853 581886 115123 76761 72592 15292 466763 26864 18723 38362 7237 4801 23708967 766362 745175 71213 21187 66927 57300 8774 673962 243767 147442 48526 10508 6335 439899 12850 427049 425253 77880
is_linear=0
shrinkage=0.1


Tree=13
num_leaves=32
num_cat=0
split_feature=12 14 20 18 6 12 6 6 6 21 5 14 13 17 17 20 16 21 6 12 13 5 8 16 16 21 6 8 6 17 4
split_gain=6.90307 13.2717 18.6072 17.2762 26.962 12.7458 20.2744 19.841 20.9474 17.574 17.4964 14.412 19.1151 14.0801 12.1989 24.0999 14.4372 14.2017 14.4338 35.0163 24.2016 16.542 19.9128 15.4311 19.175 25.846 15.0428 21.9912 14.9476 13.8638 13.6824
threshold=7343.0000000000009 53612.000000000007 2.5000000000000004 7.5000000000000009 43.500000000000007 6427.0000000000009 259.00000000000006 102.50000000000001 83.500000000000014 29.500000000000004 162.50000000000003 58412.500000000007 46610.500000000007 87.500000000000014 77.500000000000014 17.500000000000004 67.500000000000014 16.500000000000004 12.500000000000002 6542.0000000000009 2188.0000000000005 47.500000000000007 59.500000000000007 64.500000000000014 1132.5000000000002 9.5000000000000018 1.0000000180025095e-35 32.500000000000007 81.500000000000014 324.00000000000006 4.5000000000000009
decision_type=2 2 2 2 2 2 2 2 2 2 2 2 2 2 2 2 2 2 2 2 2 2 2 2 2 2 2 2 2 2 2
left_child=5 -2 -3 -4 -5 -1 7 8 9 11 13 12 14 -9 15 30 -17 18 19 29 28 22 -22 -24 25 -25 27 -21 -20 -16 -7
right_child=1 2 3 4 -6 6 -8 10 -10 -11 -12 -13 -14 -15 17 16 -18 -19 20 26 21 -23 23 24 -26 -27 -28 -29 -30 -31 -32
leaf_value=8.6289653461753187e-05 -0.0043105050441429689 0.12711476021424659 -0.093685695020972959 -0.19946278609565776 0.18615357544368435 0.12635030817881834 -0.20293115853202404 -0.20498062290827332 -0.16479729906175603 -0.19632657950082921 -0.20434138770283333 0.11321906607062514 -0.19870949173525876 0.11315296609337 -0.19972167001407271 -0.19998446241390408 0.20423778811210147 0.13788056958987957 -0.15303511094365096 0.093981930065533237 0.11133147982316566 -0.19570778571240846 0.20038268962622119 -0.17849023579572468 0.11539541672157244 0.13297613504158798 -0.14540101693668905 -0.19892971074643373 0.14216855543995008 0.15010281291645525 -0.19955350000127581
leaf_weight=73047.866679341416 2019.3769581278757 5.2733096715528509 45.92349826276768 2.665911994641645 5.6685911267995834 26.962117272836625 3.8931514688301823 1.4414673130959261 6.3901981377275652 3.6993600735440841 1.9517098467331369 16.396956222713925 4.0859839469194403 39.88753276958596 1.2847664663568128 4.3732912518316871 1.1072840690612791 7.6461284626275292 10.160334545769727 7.6185164868365955 33.875675046932884 2.5937193933641529 3.051865458488467 10.874619986163454 5.6351744355633846 3.5287545258179298 22.342456043581478 3.8627207854297012 2.063637623563408 9.5820629871450347 1.3528371420688916
leaf_count=23544820 650887 1700 14800 857 1830 8691 1258 465 2060 1191 629 5284 1317 12857 413 1410 357 2464 3272 2457 10916 837 981 3508 1816 1137 7202 1244 665 3089 439
internal_value=0 -0.00568237 -0.0522176 -0.0696468 0.0628086 0.000161196 0.0233799 0.0271814 0.013161 0.019406 0.0882403 0.0238795 0.014837 0.102057 0.0203624 0.0736271 -0.118316 0.0058595 -0.00280722 -0.0474222 0.0249688 0.0512738 0.0625191 -0.00909291 -0.040996 -0.102183 -0.097595 -0.00456458 -0.103199 0.108744 0.110779
internal_weight=0 2078.91 59.5313 54.258 8.3345 73283.5 235.662 231.769 188.488 182.098 43.2807 178.399 162.002 41.329 157.916 33.7955 5.48058 124.12 116.474 44.6905 71.7838 59.5598 56.9661 23.0904 20.0385 14.4034 33.8237 11.4812 12.224 10.8668 28.315
internal_count=24290853 670074 19187 17487 2687 23620779 75959 74701 60750 58690 13951 57499 52215 13322 50898 10897 1767 40001 37537 14405 23132 19195 18358 7442 6461 4645 10903 3701 3937 3502 9130
is_linear=0
shrinkage=0.1


Tree=14
num_leaves=32
num_cat=0
split_feature=2 18 15 18 4 5 15 6 3 18 18 8 7 8 13 13 4 3 3 8 6 18 9 7 18 18 11 18 18 2 17
split_gain=7.34504 13.8414 14.8698 10.5397 17.289 28.3806 9.53938 9.25265 8.84303 18.5566 32.4466 20.4527 21.0086 15.4418 14.9531 12.8 12.2019 11.54 10.9047 10.3657 26.224 22.6084 21.1377 21.1033 20.469 19.1627 21.1465 17.5076 29.3472 17.4522 16.5197
threshold=17657.500000000004 1.5000000000000002 25.500000000000004 278.50000000000006 363.50000000000006 1331.5000000000002 17.500000000000004 4.5000000000000009 14983.000000000002 5.5000000000000009 53.500000000000007 12.500000000000002 122.50000000000001 17.500000000000004 1.5000000000000002 12.500000000000002 21932.500000000004 60355.500000000007 85002.000000000015 2.5000000000000004 476.00000000000006 29.500000000000004 206.00000000000003 771.50000000000011 48.500000000000007 8.5000000000000018 13.500000000000002 10.500000000000002 14.500000000000002 7497.5000000000009 1.0000000180025095e-35
decision_type=2 2 2 2 2 2 2 2 2 2 2 2 2 2 2 2 2 2 2 2 2 2 2 2 2 2 2 2 2 2 2
left_child=8 -2 3 6 -5 -6 -3 -4 16 17 15 12 14 -13 -12 18 -1 -10 19 20 25 -22 -23 -21 -24 26 -11 -27 -29 30 -30
right_child=1 2 7 4 5 -7 -8 -9 9 10 11 13 -14 -15 -16 -17 -18 -19 -20 23 21 22 24 -25 -26 27 -28 28 29 -31 -32
leaf_value=-3.1078923105637498e-05 -0.20311587442448231 0.0097765522561456646 -0.2106843906886085 -0.19935307248832354 0.10299486509515812 -0.18932919170642837 -0.21058385885707187 0.16726051846434467 0.020122359479543037 -0.1993584650648037 0.094195968502386915 -0.19959029124732261 0.049289765297599326 -0.0079902420990240267 -0.14215454686298937 -0.14970425646607 0.13523870343330868 -0.19514658831931073 0.064076193518788224 -0.052717619396433227 -0.16429355612318258 -0.20016076183047607 0.12714553138737772 0.030381121515341766 -0.20612029812595015 0.085443172614000293 0.13779889157739955 -0.19894274368331011 0.074269124387086272 -0.069061758586915253 -0.095871888353972368
leaf_weight=73687.048965257287 3.0855164140230036 999.60670561267762 0.7031265499535938 6.3980658007785705 9.2578083202242833 5.1791838804492718 1.9683737345039833 8.2249614235479367 157.89178938046098 10.904114374890922 3.6035809017484999 6.850747860036793 101.0783463884145 10.897376925335264 10.408289229497312 10.538506176555527 6.6690577161498359 2.5301602312829337 10.195414631045422 78.749031138693681 34.001075587933883 4.5437951256753868 8.6602657077601162 49.941907808010001 2.3411727973725638 15.126714770914985 2.2429010067135087 9.2690925583010522 27.375704206584487 26.489181064069271 7.209611263126134
leaf_count=23764546 999 322373 225 2062 2987 1670 635 2657 50921 3515 1161 2209 32600 3514 3356 3398 2151 815 3289 25395 10964 1466 2794 16107 755 4876 722 2990 8833 8542 2326
internal_value=0 0.00836844 0.00900115 0.00787909 -0.0625167 -0.00187463 0.00934348 0.137496 -0.000116533 -0.0123016 -0.0231208 0.0179735 0.0333824 -0.0819476 -0.0813698 -0.0414645 -1.88374e-05 0.0167272 -0.0374907 -0.041231 -0.0592643 -0.118618 -0.0187156 -0.020469 0.0562245 -0.0294443 -0.141839 -0.0121558 -0.0331436 -0.00798073 0.0388017
internal_weight=0 1034.42 1031.34 1022.41 20.8351 14.437 1001.58 8.92809 74284.6 590.849 430.427 132.838 115.09 17.7481 14.0119 297.588 73693.7 160.422 287.05 276.855 148.164 49.5463 15.5452 128.691 11.0014 98.6173 13.147 85.4703 70.3436 61.0745 34.5853
internal_count=24290853 333608 332609 329727 6719 4657 323008 2882 23957245 190548 138812 42840 37117 5723 4517 95972 23766697 51736 92574 89285 47783 15979 5015 41502 3549 31804 4237 27567 22691 19701 11159
is_linear=0
shrinkage=0.1


Tree=15
num_leaves=32
num_cat=0
split_feature=0 4 0 21 17 16 4 21 12 14 5 6 1 0 6 12 9 16 14 9 16 21 14 16 16 21 14 5 14 1 0
split_gain=6.48595 23.3107 22.7536 22.5856 20.1002 32.2902 18.9509 18.0159 26.0472 19.1735 14.7442 17.1735 18.8305 13.7156 13.4442 13.4374 33.5526 29.4229 30.1904 30.4565 28.6436 20.8749 32.226 20.6046 24.4106 21.0158 20.4938 19.7499 19.3971 23.8631 39.9055
threshold=91.500000000000014 8087.0000000000009 70.500000000000014 24.500000000000004 9.5000000000000018 56.500000000000007 8210.5000000000018 78.500000000000014 112.50000000000001 224.50000000000003 9.5000000000000018 15.500000000000002 6.5000000000000009 92.500000000000014 21.500000000000004 1.0000000180025095e-35 25695.000000000004 103.50000000000001 9.5000000000000018 5.5000000000000009 45.500000000000007 16763.000000000004 2.5000000000000004 95.500000000000014 25.500000000000004 55718.500000000007 17.500000000000004 25.500000000000004 21.500000000000004 275.50000000000006 145.50000000000003
decision_type=2 2 2 2 2 2 2 2 2 2 2 2 2 2 2 2 2 2 2 2 2 2 2 2 2 2 2 2 2 2 2
left_child=2 15 -1 6 5 7 -3 -4 9 -9 -6 12 -12 -5 -13 16 17 18 19 23 21 22 -21 24 -2 -25 27 -19 -20 30 -30
right_child=1 3 4 13 10 -7 -8 8 -10 -11 11 14 -14 -15 -16 -17 -18 26 28 20 -22 -23 -24 25 -26 -27 -28 -29 29 -31 -32
leaf_value=-0.00015493844867723423 -0.042817800077476237 0.11087657942850707 0.002471521273216861 0.15898457657023385 -0.16762211699057467 -0.15067426271442405 -0.20396957777965607 -0.11738224766643968 0.10117430220943663 0.10034807146825316 0.13119709920522313 -0.19694566773549357 -0.19897236736372725 0.032941015880026854 -0.0061622264035862129 0.0039610305019925256 -0.20325365541768489 -0.20063733970234271 -0.058450376279314625 -0.20200283236588087 -0.14319249081763472 0.17100569774097146 0.072814654868447057 -0.20250337217166592 0.010518280695131775 0.11619141622127836 -0.020083533218111016 0.045873417195254652 0.0059673989558728033 -0.004279778567458945 -0.20150005939631815
leaf_weight=68118.35871584258 118.01479161996394 2.6248314045369607 71.321502689039335 8.9392631181981397 5.4804899014998218 27.416555674280971 7.0372405245434493 46.191492564947112 7.5168149112723759 4.4326095841825 15.360884898109363 3.7626092319842419 1.9462441273499269 252.16321361454902 201.50355507462518 5264.8826828086167 8.704093342937993 3.3091116165742269 181.41575272352202 4.7195928562432519 6.2517515160725443 18.522257761389483 44.491107415291481 9.7523923332337272 314.44876411731821 2.6264143870212129 76.342116290703416 182.15646851324709 19.946181907434948 232.81219142509508 17.322980832424946
leaf_count=21980047 38078 845 23009 2881 1770 8846 2271 14908 2425 1431 4957 1213 628 81372 65022 1698847 2809 1068 58537 1523 2016 5977 14357 3147 101466 847 24634 58774 6436 75122 5590
internal_value=0 0.00295122 -0.000291941 0.0317005 -0.0245362 -0.0520876 -0.118437 -0.0312096 -0.0725264 -0.0983179 -0.00558349 -0.00159357 0.0940684 0.0372563 -0.00965936 0.00175469 -0.00760686 -0.00622476 -0.0142516 0.00220313 0.0616133 0.0805169 0.0464581 -0.00767777 -0.00403658 -0.134886 0.0235249 0.0414751 -0.0331603 -0.0161727 -0.090465
internal_weight=0 6776.48 68503.3 270.765 384.933 156.879 9.66207 129.462 58.1409 50.6241 228.054 222.573 17.3071 261.102 205.266 6505.72 1240.84 1232.13 970.324 518.827 73.9847 67.733 49.2107 444.842 432.464 12.3788 261.808 185.466 451.497 270.081 37.2692
internal_count=24290853 2186597 22104256 87369 124209 50619 3116 41773 18764 16339 73590 71820 5585 84253 66235 2099228 400381 397572 313096 167411 23873 21857 15880 143538 139544 3994 84476 59842 145685 87148 12026
is_linear=0
shrinkage=0.1


Tree=16
num_leaves=32
num_cat=0
split_feature=19 3 19 14 7 19 19 6 18 7 18 16 19 2 3 12 6 18 16 16 1 10 0 0 7 12 7 6 4 14 7
split_gain=8.54591 18.866 29.8367 25.8399 32.7712 24.2801 24.0949 24.7561 23.2054 22.7705 22.6305 22.2595 17.5943 15.1992 32.661 25.3002 28.3821 19.1486 15.0072 19.8868 29.4074 26.5927 24.6487 39.5205 29.5558 26.1769 21.5807 19.5361 18.806 16.2109 21.3023
threshold=90.500000000000014 4983.0000000000009 236.00000000000003 32.500000000000007 686.50000000000011 295.00000000000006 166.50000000000003 330.00000000000006 319.00000000000006 508.50000000000006 33.500000000000007 2.5000000000000004 312.50000000000006 5459.5000000000009 46702.500000000007 5.5000000000000009 86.500000000000014 244.00000000000003 2.5000000000000004 9.5000000000000018 84498.000000000015 1.5000000000000002 7357.5000000000009 7520.5000000000009 246.50000000000003 246.00000000000003 77.500000000000014 79.500000000000014 3057.0000000000005 3.5000000000000004 260.50000000000006
decision_type=2 2 2 2 2 2 2 2 2 2 2 2 2 2 2 2 2 2 2 2 2 2 2 2 2 2 2 2 2 2 2
left_child=13 9 3 -3 6 -4 10 -8 -6 -2 -5 12 -7 14 -1 17 18 -15 27 20 -20 28 24 -24 -23 26 -25 -17 29 -21 -31
right_child=1 2 5 4 8 11 7 -9 -10 -11 -12 -13 -14 15 -16 16 -18 -19 19 21 -22 22 23 25 -26 -27 -28 -29 -30 30 -32
leaf_value=8.6275608567658977e-05 -0.0034289910344250697 -0.19870326710077668 0.070208813262986849 0.053827641466811495 -0.097212208575682316 -0.20037179407499256 -0.1980978245824955 0.069211589245236613 0.0944618868819318 0.040345974832818626 -0.074150836276510201 -0.20216614034480751 0.02098848921043886 0.035016795424702679 -0.1936691046822179 -0.019789928712489736 -0.13364924496840086 -0.19854597339427313 0.033498664697650067 0.0068905950621464193 -0.19992765687605354 -0.0098579923738728419 0.095023091914161278 0.04512949098321227 -0.15151238985908755 0.034571471144493819 -0.10478527725358461 0.16302662446919752 -0.14089136403302924 0.08673484938042901 -0.032446842537375967
leaf_weight=67857.150554778724 5141.1635262352356 11.091621528612448 45.647477827616967 58.756935297395103 86.923989887058269 4.040025357855483 10.721799305814782 5.1186019789893171 6.8112173469271502 121.64014465850778 18.065421489183791 6.6872067587682968 32.28132710349746 364.57418929593405 8.7011616387171653 274.25897760601947 14.96443390555214 3.5443148324266067 342.66971781352186 502.7735851725156 5.4834288869751608 27.636494918202516 29.104071584763005 11.864844408584757 31.537993514561094 32.466713163070381 50.355346949829254 5.9725894071161738 8.0007273324299586 57.881125601241365 20.241833933629096
leaf_count=21919528 1660718 3586 14745 18985 28076 1304 3463 1653 2201 39298 5831 2159 10430 117770 2812 88600 4834 1142 110695 162400 1771 8930 9401 3829 10183 10488 16270 1929 2584 18701 6537
internal_value=0 -0.00377684 -0.0287832 -0.0504185 -0.0415948 0.0194116 0.000577175 -0.111721 -0.0832843 -0.00241721 0.0237324 -0.0345024 -0.00363342 0.0003009 6.1434e-05 0.00941393 0.00333917 0.032768 0.00480316 0.00998155 0.0298222 0.00103231 -0.0322678 -0.00689116 -0.085355 -0.0382167 -0.0761978 -0.0158936 0.0113784 0.0134756 0.0558546
internal_weight=0 5548.95 286.146 197.49 186.398 88.656 92.6628 15.8404 93.7352 5262.8 76.8224 43.0086 36.3214 69649.2 67865.9 1783.33 1415.21 368.119 1400.25 1120.02 348.153 771.863 182.965 123.791 59.1745 94.6869 62.2202 280.232 588.897 580.897 78.123
internal_count=24290853 1792449 92433 63795 60209 28638 29932 5116 30277 1700016 24816 13893 11734 22498404 21922340 576064 457152 118912 452318 361789 112466 249323 59101 39988 19113 30587 20099 90529 190222 187638 25238
is_linear=0
shrinkage=0.1


Tree=17
num_leaves=32
num_cat=0
split_feature=16 14 16 11 14 6 18 21 21 21 21 7 5 2 18 5 7 6 9 14 7 14 7 21 3 10 6 14 7 11 2
split_gain=8.13809 30.834 21.1559 21.1123 14.6384 13.7605 13.5526 12.9388 14.3034 16.369 21.3876 12.6842 12.4607 18.9922 20.8342 19.306 16.3457 14.7827 28.0681 19.343 21.2349 24.0729 22.8253 16.5908 16.5451 15.9747 11.7856 22.6904 33.1167 21.5382 34.6141
threshold=83.500000000000014 7531.0000000000009 58.500000000000007 170.50000000000003 5066.0000000000009 52.500000000000007 1.5000000000000002 34.500000000000007 89.500000000000014 188.50000000000003 212.50000000000003 4.5000000000000009 280.50000000000006 3740.5000000000005 33.500000000000007 243.50000000000003 571.50000000000011 51.500000000000007 1.5000000000000002 12.500000000000002 7.5000000000000009 2.5000000000000004 2.5000000000000004 44152.000000000007 841.50000000000011 5476.5000000000009 32.500000000000007 11.500000000000002 1381.5000000000002 4.5000000000000009 5924.0000000000009
decision_type=2 2 2 2 2 2 2 2 2 2 2 2 2 2 2 2 2 2 2 2 2 2 2 2 2 2 2 2 2 2 2
left_child=1 2 -1 4 12 -3 7 -5 -9 -10 -11 -7 13 14 15 17 -16 19 -19 20 21 23 24 -4 25 -23 27 28 29 30 -2
right_child=26 5 3 6 -6 11 -8 8 9 10 -12 -13 -14 -15 16 -17 -18 18 -20 -21 -22 22 -24 -25 -26 -27 -28 -29 -30 -31 -32
leaf_value=7.6810042639863609e-05 -0.071129685354478375 0.066282772003167997 0.083764397893918818 -0.20148570635471744 -0.19863677103852695 0.20238250499895108 -0.19719467173384483 0.057353960197099367 -0.19822063231798204 0.12759597669646303 -0.19970466502322826 -0.12784698847831119 0.048457394511131013 -0.19403223812039858 0.10715963773270082 -0.20191661629666513 -0.19223969591844181 -0.20418979469326537 0.094180445571163507 0.044872751582981978 -0.19926064005587241 -0.13790549622665513 -0.19824217163271377 -0.19912108542291238 0.12224808635925516 0.16954682199764207 0.0017286450805635964 -0.0026424023625830784 0.091806443767976906 -0.011948030231053897 -0.0043646814923107005
leaf_weight=68812.799790452977 198.33300783566665 93.187920972908614 24.822076061042029 3.7137100009713313 2.8171919269952914 1.4101841449737529 5.2075159212108693 17.397021510638297 6.3297098930925122 5.6924397528637183 3.0749654265819117 6.6393256795126945 194.47805073644849 4.3187270160997278 31.726143528823741 4.4326563426293424 1.9346803930820886 8.3426327890483645 5.0682094307849175 99.899933680979302 6.3857823929283759 8.9385409078095162 9.4844874060363491 2.2621708696242413 6.4118592531885943 2.083974376320838 2400.0581761625508 2491.9793775697908 25.011525018955581 499.77804882578494 127.61848977394402
leaf_count=22253833 64136 30137 8024 1198 912 455 1685 5628 2046 1841 995 2149 62892 1394 10262 1433 625 2701 1640 32312 2069 2890 3065 730 2071 673 776170 805903 8089 161631 41264
internal_value=0 0.000299492 0.000218891 0.0217152 0.0285345 0.0554472 -0.0463547 -0.0246605 -0.00445137 -0.0756722 0.0128028 -0.0699945 0.0300932 0.0135674 0.0178006 0.00416656 0.0899514 0.00942561 -0.0914301 0.0178639 -0.0268163 -0.006425 -0.0733958 0.0601368 -0.00547798 -0.079777 -0.00361767 -0.0074563 -0.0215571 -0.0249909 -0.0449894
internal_weight=0 69368.9 69267.6 454.822 413.407 101.237 41.4154 36.2078 32.4941 15.0971 8.76741 8.04951 410.59 216.112 211.793 178.132 33.6608 173.7 13.4108 160.289 60.3889 54.0031 26.9189 27.0842 17.4344 11.0225 5742.78 3342.72 850.741 825.73 325.951
internal_count=24290853 22433660 22400919 147086 133693 32741 13393 11708 10510 4882 2836 2604 132781 69889 68495 57608 10887 56175 4341 51834 19522 17453 8699 8754 5634 3563 1857193 1081023 275120 267031 105400
is_linear=0
shrinkage=0.1


Tree=18
num_leaves=32
num_cat=0
split_feature=20 10 14 13 4 4 5 3 14 4 8 13 2 12 5 2 14 14 13 10 5 13 18 13 18 13 8 18 7 12 12
split_gain=6.02496 19.2181 23.4883 30.8918 18.5436 18.5814 18.2627 16.3342 15.4042 12.7786 12.136 15.1907 11.9468 11.6016 11.2031 12.5712 14.8198 17.3814 10.618 10.1176 12.4697 9.09947 8.90178 8.26501 13.0691 11.2727 7.97714 15.0724 12.6595 9.93378 16.4214
threshold=36082.000000000007 2.5000000000000004 62.500000000000007 72.500000000000014 5.5000000000000009 15.500000000000002 5.5000000000000009 45.500000000000007 3.5000000000000004 20.500000000000004 243.50000000000003 3.5000000000000004 14.500000000000002 25.500000000000004 3.5000000000000004 3.5000000000000004 144.50000000000003 89.500000000000014 92.500000000000014 1.5000000000000002 1.5000000000000002 58.500000000000007 6156.5000000000009 30.500000000000004 3908.5000000000005 24.500000000000004 181.50000000000003 8880.5000000000018 1.0000000180025095e-35 16.500000000000004 61.500000000000007
decision_type=2 2 2 2 2 2 2 2 2 2 2 2 2 2 2 2 2 2 2 2 2 2 2 2 2 2 2 2 2 2 2
left_child=-1 2 3 4 7 8 -3 -2 -6 10 13 -12 14 22 15 16 17 18 -4 -10 -21 23 -7 24 25 -9 27 -16 29 -28 -31
right_child=1 6 12 -5 5 9 -8 21 19 -11 11 -13 -14 -15 26 -17 -18 -19 -20 20 -22 -23 -24 -25 -26 -27 28 -29 -30 30 -32
leaf_value=-4.7061894621135468e-05 -0.15070061830351519 0.12001927944639466 -0.19875875163544632 -0.19970506229109264 0.12659235310404152 0.051929222333842097 -0.19873680385937209 0.16212058531907045 -0.17500656904786999 -0.19674358316145107 0.10875563184048871 -0.19634843782618827 -0.1979914023856347 0.16706251485786286 0.1467558974623781 -0.20441379429673834 0.12241015366487609 -0.19831992046609917 0.052857264780393931 0.17435089415315586 -0.20011622356094702 -0.1967543672799007 -0.20001815238434195 0.12429343688030987 -0.19858275314893908 -0.19999999999999984 0.089579265996612534 -0.109440592530204 -0.20411856733818889 -0.19463174534166688 0.095869994139906156
leaf_weight=74907.422535003076 3.5846721043344614 24.511521971202459 1.9156311303377211 9.6849601501598936 2.3726742092985686 6.5488158260122962 1.9396519034635265 4.1632332578301492 16.89729987282772 2.6996295689605168 2.6634504683315745 4.2132308112923056 2.0429528965614727 7.9096598762553176 20.67865304439329 2.7642767797224215 9.3778407431091164 4.692860022536478 13.471005377708932 2.0194691913202401 1.5889461333863435 1.1680508755380277 1.7844772412208838 18.62156130746007 2.2990128822857514 1.0833462104201315 23.771379687474113 2.583208817173726 1.9658217525575299 3.664947143639437 4.1484543550759554
leaf_count=24223967 1158 7927 620 3132 769 2118 628 1348 5462 873 858 1365 662 2558 6686 894 3030 1518 4357 652 514 379 576 6021 742 351 7690 838 636 1187 1337
internal_value=0 0.017044 0.00537114 -0.0310711 -0.0105579 -0.0490132 0.096645 0.0500079 -0.114635 0.00913364 0.0331735 -0.0781767 0.0411033 0.0803151 0.0465895 -0.000512357 0.0186218 -0.0298511 0.0215312 -0.142546 0.00945633 0.0763283 -0.00202236 0.0885182 0.000229573 0.0873477 0.0733037 0.118306 0.0421024 0.057427 -0.0403925
internal_weight=0 206.831 180.38 89.3025 79.6175 48.6977 26.4512 30.9199 22.8784 25.8193 23.1196 6.87668 91.077 16.243 89.0341 32.2216 29.4573 20.0795 15.3866 20.5057 3.60842 27.3352 8.33329 26.1672 7.54559 5.24658 56.8125 23.2619 33.5506 31.5848 7.8134
internal_count=24290853 66886 58331 28876 25744 15745 8555 9999 7397 8348 7475 2223 29455 5252 28793 10419 9525 6495 4977 6628 1166 8841 2694 8462 2441 1699 18374 7524 10850 10214 2524
is_linear=0
shrinkage=0.1


Tree=19
num_leaves=32
num_cat=0
split_feature=20 0 0 1 17 7 20 15 17 8 18 17 0 17 7 7 18 18 0 15 7 16 0 16 16 0 12 2 18 16 12
split_gain=11.4357 10.8542 15.627 30.9008 28.9464 21.7616 19.6154 16.0697 12.3202 26.6766 14.355 13.9742 20.9539 19.5928 12.926 12.7694 24.1431 21.6863 16.2692 15.8391 17.1971 13.402 22.5617 15.7237 22.9621 24.2022 21.4957 19.8819 25.9945 26.2851 14.9425
threshold=61147.000000000007 7652.5000000000009 7564.0000000000009 1118.0000000000002 70.500000000000014 148.50000000000003 1.0000000180025095e-35 4.5000000000000009 595.00000000000011 18.500000000000004 415.50000000000006 384.50000000000006 11494.500000000002 435.50000000000006 1255.5000000000002 72.500000000000014 12.500000000000002 3.5000000000000004 9568.5000000000018 209.50000000000003 22.500000000000004 175.50000000000003 9773.0000000000018 95.500000000000014 69.500000000000014 9568.5000000000018 8.5000000000000018 12256.000000000002 148.50000000000003 148.50000000000003 45.500000000000007
decision_type=2 2 2 2 2 2 2 2 2 2 2 2 2 2 2 2 2 2 2 2 2 2 2 2 2 2 2 2 2 2 2
left_child=1 2 -1 4 -4 -6 -7 -5 10 -10 11 15 14 -14 -13 19 17 18 -17 -3 -21 23 -23 24 -18 30 -27 -25 29 -29 -26
right_child=-2 8 3 7 5 6 -8 -9 9 -11 -12 12 13 -15 -16 16 21 -19 -20 20 -22 22 -24 27 25 26 -28 28 -30 -31 -32
leaf_value=-0.00018965782540926072 0.041610291603545881 -0.0051632395848613356 -0.17636404446497794 -0.18146754804899895 -0.20279968862214295 0.14076177917396648 -0.20199148746966902 0.15722367631280601 -0.19592285317750896 0.12813612856027548 0.15843268398759902 -0.19434230696449151 -0.19958470411157661 0.083724527845647212 0.073827443234291676 0.16299496414371217 0.022617305742727793 -0.15906530263432839 -0.19282891065893845 0.034142048718370475 -0.20059451346560389 -0.18837383764632798 0.0053089297562488114 0.1195079765380454 -0.20318401062972535 0.14642955284976347 -0.2039419095840668 0.089134620978599616 -0.20630034166019981 -0.20668677002296643 0.048746509361772425
leaf_weight=73167.114383678127 65.989953855401836 774.05125423049321 6.3569864612072733 17.810953630832959 2.6094550245907184 16.419785748468716 1.8586830450221885 1.5204699705354858 8.0983226126991195 3.7013206896372131 6.3415717519819728 11.370818031020464 3.124193769413977 11.163245726958847 2.1348593184957272 4.5876849329797578 692.86167015464162 14.054918802983591 1.7849232671433126 156.22297811193857 3.1846297448500982 8.0084601276321319 24.154124794004019 36.202290186134633 2.7454161917557967 2.0246471245773128 12.957178404962177 22.324948348803453 4.7030321717611505 3.470608099247328 16.526026090839878
leaf_count=23663941 21343 250339 2057 5764 844 5308 601 490 2622 1197 2051 3677 1009 3612 691 1483 224098 4541 578 50526 1031 2590 7808 11710 892 658 4189 7221 1521 1122 5339
internal_value=0 -3.65931e-05 -0.000226519 -0.0581316 0.010479 0.0673424 0.105908 -0.154829 0.00757934 -0.0942718 0.00824185 0.00771496 -0.0626459 0.0217741 -0.151952 0.00881366 0.0177087 -0.0896861 0.0633312 0.000748122 0.0294525 0.0203648 -0.0429179 0.0229288 0.0186661 -0.0612579 -0.156593 0.0693967 0.0099139 0.049334 0.0128564
internal_weight=0 75039.5 73213.7 46.5763 27.2449 20.8879 18.2785 19.3314 1825.8 11.7996 1814 1807.66 27.7931 14.2874 13.5057 1779.86 846.406 20.4275 6.37261 933.459 159.408 825.978 32.1626 793.816 727.115 34.2533 14.9818 66.7009 30.4986 25.7956 19.2714
internal_count=24290853 24269510 23679005 15064 8810 6753 5909 6254 590505 3819 586686 584635 8989 4621 4368 575646 273750 6602 2061 301896 51557 267148 10398 256750 235176 11078 4847 21574 9864 8343 6231
is_linear=0
shrinkage=0.1


Tree=20
num_leaves=32
num_cat=0
split_feature=20 20 20 14 14 11 18 14 14 2 4 2 3 0 14 14 15 18 14 18 3 6 18 0 18 6 18 2 3 18 10
split_gain=8.34487 9.44489 14.1192 15.2812 13.8279 17.2313 18.306 16.4093 23.1915 29.241 15.014 25.1602 14.3381 13.0999 10.5648 13.2923 10.4975 10.4468 14.4347 16.2614 14.24 13.2989 12.4527 19.2048 19.0343 16.4157 13.297 12.3414 17.23 16.6395 10.3961
threshold=61147.000000000007 28383.500000000004 26478.500000000004 50.500000000000007 294.50000000000006 7.5000000000000009 10060.000000000002 224.50000000000003 83.500000000000014 9.5000000000000018 8.5000000000000018 1.0000000180025095e-35 365.00000000000006 973.00000000000011 98.500000000000014 157.50000000000003 1.0000000180025095e-35 1061.0000000000002 6.5000000000000009 4157.5000000000009 293.50000000000006 1.0000000180025095e-35 6202.5000000000009 117.50000000000001 7074.5000000000009 1.5000000000000002 5908.5000000000009 1.0000000180025095e-35 225.50000000000003 8707.5000000000018 1.0000000180025095e-35
decision_type=2 2 2 2 2 2 2 2 2 2 2 2 2 2 2 2 2 2 2 2 2 2 2 2 2 2 2 2 2 2 2
left_child=1 2 -1 -4 5 6 7 8 13 10 11 14 -11 17 -10 -16 -9 -3 21 20 -20 -19 25 -24 -25 26 -21 28 -26 -30 -29
right_child=-2 4 3 -5 -6 -7 -8 16 9 12 -12 -13 -14 -15 15 -17 -18 18 19 22 -22 -23 23 24 27 -27 -28 30 29 -31 -32
leaf_value=1.9833505861732516e-05 0.035367388204664861 -0.2039398482562752 0.17864969393420754 -0.20014734536052992 -0.19779845227203971 0.14841552732860736 0.047268066782257687 0.12033558272568512 -0.19901242641134265 -0.18495100055309927 -0.19276491652755842 -0.20138389853769778 0.12938900535489653 -0.19416986178510071 0.10326565546977168 -0.19940841873750814 -0.20036562558607632 0.14766049861834668 -0.18891716500785907 0.020384995693588408 -0.027391611417665919 -0.20704378703989534 -0.1881914680698594 -0.19412925552114393 -0.19940522297611529 -0.19738325707076085 0.14791426334556995 0.0061370772292377914 0.06477178830970505 -0.19860267628260028 0.12856861496053601
leaf_weight=74755.6402290111 66.654258042806759 2.814772523706778 7.6612765048630518 1.2369347938220014 4.2564147717203005 6.2147793888580045 34.688801556243561 9.9546169983223063 1.924587746849286 1.8117729849764126 20.293436442589154 8.9916892640758288 7.288837194442749 4.1062838521320364 9.1358322970336285 1.7248839539242897 1.1372802713885892 8.9347509690560383 9.4909135524649191 35.52301114652073 12.844148448028134 1.198845715727656 6.9766147735062978 5.2498513807076952 5.9467757493257549 2.8543776359874746 10.620200091449076 23.15204429224832 10.504809699021278 3.1086641303263596 9.9019007205497456
leaf_count=24182099 21561 910 2477 401 1380 2012 11220 3219 624 586 6562 2908 2359 1327 2954 558 368 2888 3070 11492 4154 388 2257 1696 1925 922 3436 7491 3399 1005 3205
internal_value=0 -3.14222e-05 3.48264e-05 0.125993 -0.019034 -0.0160664 -0.0201523 -0.0310053 -0.0374336 -0.095722 -0.130881 -0.073212 0.0668094 -0.017968 0.0169292 0.0551954 0.0874533 -0.013116 -0.00944477 -0.0180133 -0.0960292 0.105698 -0.00270658 -0.0314574 -0.0125602 0.0353407 0.0497368 0.00555682 -0.0574017 0.0046297 0.0428136
internal_weight=0 75025.2 74764.5 8.89821 260.651 256.394 250.18 215.491 204.399 51.171 42.0704 21.777 9.10061 153.228 12.7853 10.8607 11.0919 149.122 146.307 136.173 22.3351 10.1336 113.838 64.8407 57.864 48.9976 46.1432 52.6142 19.5602 13.6135 33.0539
internal_count=24290853 24269292 24184977 2878 84315 82935 80923 69703 66116 16551 13606 7044 2945 49565 4136 3512 3587 48238 47328 44052 7224 3276 36828 20978 18721 15850 14928 17025 6329 4404 10696
is_linear=0
shrinkage=0.1


Tree=21
num_leaves=32
num_cat=0
split_feature=20 12 12 12 10 2 10 9 12 13 13 3 16 4 9 21 9 21 21 4 19 9 10 8 10 2 19 10 8 8 12
split_gain=6.91277 13.7665 14.4517 13.7359 32.1853 11.7536 11.3239 10.7957 12.1826 11.8338 10.3237 8.2387 6.8403 6.47697 6.32415 6.23586 12.5719 10.9537 10.2012 20.6244 10.9608 9.46501 9.10159 8.81081 16.2404 13.4069 13.577 12.3011 22.7814 16.248 12.1447
threshold=50132.000000000007 19.500000000000004 10.500000000000002 93.500000000000014 19.500000000000004 7.5000000000000009 3.5000000000000004 10.500000000000002 6.5000000000000009 102.50000000000001 262.00000000000006 63.500000000000007 1.0000000180025095e-35 20.500000000000004 4.5000000000000009 93.500000000000014 15227.000000000002 21.500000000000004 107.50000000000001 9424.5000000000018 1101.5000000000002 14774.500000000002 41812.500000000007 1.0000000180025095e-35 8.5000000000000018 4.5000000000000009 90.500000000000014 1.0000000180025095e-35 640.00000000000011 138.50000000000003 78.500000000000014
decision_type=2 2 2 2 2 2 2 2 2 2 2 2 2 2 2 2 2 2 2 2 2 2 2 2 2 2 2 2 2 2 2
left_child=15 2 7 5 -5 6 13 8 -2 -10 -4 -9 -7 -3 -12 17 18 -1 19 20 23 -20 -18 24 -17 27 -27 29 -29 -25 -26
right_child=1 3 10 4 -6 12 -8 11 9 -11 14 -13 -14 -15 -16 16 22 -19 21 -21 -22 -23 -24 25 30 26 -28 28 -30 -31 -32
leaf_value=1.8199888633203456e-05 -0.19494389094941644 0.12847946464813639 -0.18478345811597918 -0.19723471159308376 0.16052771096024029 -0.11911764293018462 -0.20484193424408295 -0.17868095699946684 -0.19942807229190396 0.15169324527767411 0.19583870571054687 0.04946280172094572 0.1189765648220992 -0.17010825955937867 -0.19087726515995318 -0.20128455120240579 -0.20164890260084445 0.0085376796951384028 -0.0025606248576998986 -0.1966971957168 -0.11628374874482413 0.19709460024837572 0.089511763209206591 -0.19996220321403366 0.015289658459478765 -0.0016252534297591737 0.12924211580632558 0.023552260612708844 -0.1977757917780156 -0.026235699263477526 -0.18605824501108087
leaf_weight=68519.286810280522 4.720450872089712 32.678576247883029 6.8382398763205838 5.7307512491242942 4.4806565116159618 3.8544914120575404 1.0958605423802499 1.6613462376408268 1.4262521143537013 2.935311219887808 1.3541710111312566 33.502945037442259 1.7565109161660073 0.74300474999472399 0.61490211309865106 6.5548303592950132 5.2170147867873302 1543.1454241496249 4744.2449560632158 6.9486013224814078 11.079358469636643 2.3756216345354906 1.3518175939097998 7.8577673301333588 16.867914399015721 18.827261122874916 13.693495350213196 51.128008917119587 5.1159144608536726 17.097229777486064 3.6425619856454423
leaf_count=22168883 1526 10570 2213 1855 1450 1248 354 541 463 949 438 10835 570 241 199 2124 1691 499275 1534964 2249 3584 769 437 2542 5454 6088 4429 16544 1658 5531 1179
internal_value=0 0.0258393 -0.00970448 0.0632991 -0.0402524 0.0896497 0.11147 0.013581 -0.0836148 0.0368749 -0.126686 0.0386841 -0.0445828 0.121841 0.0750751 -3.56345e-05 -0.00347997 0.000205844 -0.00329484 -0.0282256 -0.0205171 -0.0024607 -0.14173 -0.0129806 -0.0642598 -0.000776126 0.053479 -0.0225057 0.00342039 -0.0809383 -0.0204688
internal_weight=0 103.393 53.0536 50.3399 10.2114 40.1284 34.5174 44.2463 9.08201 4.36156 8.80731 35.1643 5.611 33.4216 1.96907 74974.4 4912 70062.4 4905.43 158.813 151.864 4746.62 6.56883 140.785 27.0653 113.72 32.5208 81.1989 56.2439 24.955 20.5105
internal_count=24290853 33452 17164 16288 3305 12983 11165 14314 2938 1412 2850 11376 1818 10811 637 24257401 1589243 22668158 1587115 51382 49133 1535733 2128 45549 8757 36792 10517 26275 18202 8073 6633
is_linear=0
shrinkage=0.1


Tree=22
num_leaves=32
num_cat=0
split_feature=20 13 4 11 12 0 12 8 12 13 8 11 13 2 0 9 18 18 2 7 7 4 20 20 18 18 8 17 12 18 11
split_gain=7.89431 7.61644 6.70187 6.91984 9.87922 7.21553 14.2981 7.04586 13.784 14.4581 28.2025 6.42661 5.95653 5.49172 9.06878 8.58023 9.33108 14.35 7.94079 18.4598 23.9928 29.8492 18.8433 24.3579 16.9171 12.9179 20.5099 17.8734 12.489 12.4865 10.3647
threshold=50132.000000000007 374.50000000000006 2.5000000000000004 1.5000000000000002 82.000000000000014 3265.5000000000005 6.5000000000000009 44.500000000000007 4.5000000000000009 24.500000000000004 221.50000000000003 1.0000000180025095e-35 86.500000000000014 9603.5000000000018 13221.000000000002 6.5000000000000009 123.50000000000001 50.500000000000007 8943.0000000000018 2176.5000000000005 642.50000000000011 44292.000000000007 114.50000000000001 67.500000000000014 6.5000000000000009 7.5000000000000009 3.5000000000000004 101.50000000000001 3.5000000000000004 67.500000000000014 14.500000000000002
decision_type=2 2 2 2 2 2 2 2 2 2 2 2 2 2 2 2 2 2 2 2 2 2 2 2 2 2 2 2 2 2 2
left_child=13 2 -2 4 5 7 -7 12 -9 11 -11 -10 -4 18 -15 16 17 -16 -1 20 22 -22 23 24 -20 -26 28 -28 -27 30 -24
right_child=1 -3 3 -5 -6 6 -8 8 9 10 -12 -13 -14 14 15 -17 -18 -19 19 -21 21 -23 29 -25 25 26 27 -29 -30 -31 -32
leaf_value=-0.00011308432233655213 -0.20701729287991469 -0.18070857496415402 -0.1688018578329763 0.092093010501996253 -0.18309037155288566 -0.163130410872661 0.1149261882509693 0.052401220239129402 -0.16535813797533294 0.048126517682014092 -0.18424998806617676 0.15191228045427516 0.12902921704241274 0.0071008954071309751 -0.19724546515864852 -0.20004735375957317 -0.1986511755275685 0.075428330167768953 -0.18049036578836275 0.08623929522209664 -0.19804825756351016 0.046221730196050276 0.085031723346653224 -0.1976357109830448 0.16004395709895433 -0.20147431385096956 0.068436719478992963 -0.1933020032829009 0.055794712720212372 -0.19976740935449575 -0.19682950716294978
leaf_weight=73461.574614406651 1.1596185488160689 1.7139939097687591 0.74335577129386265 17.298988999100402 2.2755830304231486 2.0878857504576471 16.185036608949304 23.954496597580146 0.75512223574333148 8.9380286709056254 12.564849157002753 4.1319005899131298 6.9479186048265547 1370.2095900119166 2.5134294333402094 3.7372723650187245 2.6053557166596866 8.315181518555617 5.5848401648690915 13.024829128524287 17.233306747279133 7.0486871987814075 24.794374084682211 9.115333814523181 4.7562960768118492 7.4411236474988964 20.435167252202522 2.9908212558366349 2.5279528789687902 1.833227511961012 1.3770807425025839
leaf_count=23771715 377 557 241 5597 736 677 5236 7749 244 2894 4071 1333 2245 443389 816 1206 844 2689 1804 4216 5577 2281 8022 2949 1535 2409 6617 969 819 595 444
internal_value=0 0.0282545 0.0319453 0.0348353 0.022231 0.0283538 0.0831551 0.0110993 -0.00251967 -0.0523722 -0.0876588 0.102889 0.100244 -3.72216e-05 0.00619582 -0.0660261 -0.028742 0.012138 -0.000154749 -0.0260573 -0.0399689 -0.12714 -0.0137903 -0.0489309 -0.0179384 0.00585698 -0.0161031 0.0350203 -0.136236 0.0525283 0.0702008
internal_weight=0 98.7568 97.0428 95.8832 78.5842 76.3086 18.2729 58.0357 50.3444 26.3899 21.5029 4.88702 7.69127 74967.1 1387.38 17.1712 13.434 10.8286 73579.7 118.163 105.138 24.282 80.8562 52.8515 43.7362 38.1514 33.3951 23.426 9.96908 28.0047 26.1715
internal_count=24290853 31957 31400 31023 25426 24690 5913 18777 16291 8542 6965 1577 2486 24258896 448944 5555 4349 3505 23809952 38237 34021 7858 26163 17102 14153 12349 10814 7586 3228 9061 8466
is_linear=0
shrinkage=0.1


Tree=23
num_leaves=32
num_cat=0
split_feature=20 12 2 3 4 4 18 3 0 0 0 18 0 0 8 18 2 16 19 18 17 18 17 16 10 10 16 19 8 20 1
split_gain=13.4373 5.23868 5.81267 5.32149 5.22479 5.33231 9.90639 4.79584 8.64201 6.80273 15.2686 10.9175 8.3138 11.403 7.08793 6.40952 13.4354 10.4226 12.0174 10.1442 5.79484 6.02273 17.0485 6.56965 14.2201 9.40041 5.51034 4.49927 4.22212 28.9401 14.7828
threshold=50132.000000000007 19.500000000000004 7.5000000000000009 63.500000000000007 20.500000000000004 4.5000000000000009 5706.5000000000009 70853.500000000015 9877.0000000000018 5053.5000000000009 3265.5000000000005 57.500000000000007 5593.5000000000009 6814.0000000000009 18.500000000000004 24.500000000000004 9892.0000000000018 11.500000000000002 106.50000000000001 12.500000000000002 228.50000000000003 157.50000000000003 128.50000000000003 39.500000000000007 1.0000000180025095e-35 1.5000000000000002 16.500000000000004 47851.500000000007 39511.000000000007 4.5000000000000009 33.500000000000007
decision_type=2 2 2 2 2 2 2 2 2 2 2 2 2 2 2 2 2 2 2 2 2 2 2 2 2 2 2 2 2 2 2
left_child=7 3 4 -2 5 6 -3 28 9 10 11 14 -11 -14 15 16 -9 18 -17 -18 21 22 23 24 -15 26 -26 -5 -1 30 -30
right_child=1 2 -4 27 -6 -7 -8 8 -10 12 -12 -13 13 20 -16 17 19 -19 -20 -21 -22 -23 -24 -25 25 -27 -28 -29 29 -31 -32
leaf_value=-0.00010861583729174156 -0.15191854466928364 0.075342049498205638 -0.054370543512535098 -0.19867369509345179 -0.15090756849318154 0.093547221927639465 -0.19297203419579165 -0.19339276447701889 -0.18733322544414868 0.16572068748978469 -0.19103322845024839 -0.18907589879344475 -0.19287676157803779 -0.20082088315179006 -0.197929054702882 0.16088447114385068 0.10768625710066802 -0.19331414489331539 -0.19775749758996308 -0.19016064196168159 -0.18818910591118815 0.18498912019807681 -0.19540076782712656 0.13502775302727366 0.12017385348138745 -0.16071949870203567 -0.19353680994917974 0.02586473856055925 0.079860845561339711 -0.20148450686876354 0.0078401958755887902
leaf_weight=74718.739369882882 1.8560250574955706 4.6209233892150214 3.9412229488953008 0.9119262850144868 1.0212180325761426 35.051956524490379 1.9595524070318786 2.767632141709341 1.8578482049051661 6.1254990008892483 3.8217156545724711 2.2436583586968473 1.9940597445238371 2.2715869680978491 1.1821849511470635 10.610169796971602 7.1686604046262783 1.095691560069098 1.0245236684568215 1.3604977424256501 0.96069498098222439 3.4857633225619784 2.6540860505774608 9.7719785021617991 10.435589958564375 1.5359208360314358 0.5916565346997239 41.683316839800682 35.784970411565155 5.9641222244827068 139.99130712993792
leaf_count=24178970 600 1490 1275 294 330 11346 637 895 601 1980 1236 724 647 734 383 3433 2321 356 331 437 312 1128 860 3163 3377 498 193 13490 11583 1929 45300
internal_value=0 0.0383939 0.0618229 0.0138351 0.0725592 0.0780407 -0.00455727 -4.66257e-05 0.0255793 0.0311426 -0.0037628 0.022307 0.0585528 0.0390741 0.0411203 0.052882 -0.0019463 0.101536 0.129303 0.0601763 0.0536614 0.0612182 0.0453919 0.0713639 0.0294271 0.0710589 0.103342 0.0210576 -7.15875e-05 0.0151518 0.0225023
internal_weight=0 91.0461 46.5949 44.4513 42.6537 41.6324 6.58048 74973.4 72.9594 71.1016 31.2747 27.453 39.8268 33.7013 25.2094 24.0272 11.2968 12.7304 11.6347 8.52916 31.7073 30.7466 27.2608 24.6067 14.8348 12.5632 11.0272 42.5952 74900.5 181.74 175.776
internal_count=24290853 29462 15078 14384 13803 13473 2127 24261391 23609 23008 10116 8880 12892 10912 8156 7773 3653 4120 3764 2758 10265 9953 8825 7965 4802 4068 3570 13784 24237782 58812 56883
is_linear=0
shrinkage=0.1


Tree=24
num_leaves=32
num_cat=0
split_feature=3 14 18 0 18 17 0 0 6 18 6 2 2 10 19 6 10 2 18 14 19 2 11 0 8 18 17 14 14 6 6
split_gain=10.6994 7.27974 7.63299 7.54367 13.5278 11.1616 13.4076 7.72621 5.98443 10.1152 5.02391 17.5703 28.7869 36.3563 17.3571 15.7568 24.1421 17.2664 17.5896 18.434 16.8044 20.5434 16.0841 18.2661 17.1702 15.4051 14.9439 15.2423 13.3987 13.0041 16.5154
threshold=70853.500000000015 1.0000000180025095e-35 8.5000000000000018 7743.5000000000009 34.500000000000007 42.500000000000007 876.50000000000011 9568.5000000000018 4.5000000000000009 31.500000000000004 6471.5000000000009 309.00000000000006 228.50000000000003 148.50000000000003 10.500000000000002 7781.5000000000009 376.00000000000006 29.500000000000004 238.50000000000003 20.500000000000004 24.500000000000004 18.500000000000004 109.50000000000001 3.5000000000000004 41482.500000000007 224.50000000000003 7.5000000000000009 21.500000000000004 2.5000000000000004 9305.0000000000018 9891.0000000000018
decision_type=2 2 2 2 2 2 2 2 2 2 2 2 2 2 2 2 2 2 2 2 2 2 2 2 2 2 2 2 2 2 2
left_child=10 3 -3 5 7 6 -2 -5 -7 -10 -1 12 15 -14 -13 16 20 -18 19 -19 22 -22 23 -12 26 -16 27 -24 -20 -15 -31
right_child=1 2 -4 4 -6 8 -8 -9 9 -11 11 14 13 29 25 -17 17 18 28 -21 21 -23 24 -25 -26 -27 -28 -29 -30 30 -32
leaf_value=-0.00014913709576783464 0.19155035411113561 -0.16819361009243436 0.082739972266298922 -0.18281030198449527 -0.18133937944973033 0.091671684500302664 -0.13084231738743704 0.16558690182472274 0.13492614742055725 -0.17770716498029815 -0.19721348263373628 0.10130383710573794 -0.20310977933316743 -0.19661288961068818 -0.20218745766246632 0.0014534703310575734 -0.20189763214356207 -0.19820944796285567 -0.19763390095453509 0.2080617440417093 0.19579430530781128 -0.20106083015106738 0.094415878875977119 0.024069821710507186 -0.063183887599580962 0.058349741523800375 -0.19785900566374515 -0.20397679235824562 0.041792927305574351 0.11424766909895162 -0.10953149303852827
leaf_weight=73613.003282228718 1.6020427457988278 1.2604591561830591 31.666784276603721 0.84913840063381796 4.9100345246843062 18.868501190328974 6.6223469681572169 2.5421989614260383 1.8464557230472554 2.3546594614163041 4.2538475038018069 34.267328969552182 15.0285922762705 2.6496705985046018 3.960596811375579 1094.8269537947199 5.2818590528331688 7.364945817855185 2.5318581401370457 1.3164601325988767 1.7384884497150768 5.223893370712176 106.82516677386593 30.311852328944951 8.4342415537685138 5.3151134350337088 1.8386708928737778 1.7397682443261135 30.419296900101472 10.417949648341162 4.8256373544572844
leaf_count=23821278 516 407 10246 272 1591 6110 2144 822 599 761 1376 11089 4862 857 1281 354287 1709 2384 819 426 560 1694 34571 9803 2729 1720 596 563 9845 3374 1562
internal_value=0 0.0383913 0.0731342 0.0094994 -0.0752477 0.0319803 -0.0680429 0.0783536 0.0676389 -0.0402999 -3.71283e-05 0.00594392 0.00390505 -0.0884442 0.0684556 0.00623996 0.0315216 -0.0315758 -0.00996735 -0.136602 0.0499805 -0.101967 0.0568768 -0.00316253 0.0743401 -0.0528959 0.0848462 0.0896341 0.0233962 0.00786373 0.0434063
internal_weight=0 72.5226 32.9272 39.5954 8.30137 31.294 8.22439 3.39134 23.0696 4.20112 74991.6 1378.57 1335.03 32.9218 43.543 1302.11 207.28 46.9144 41.6326 8.68141 160.366 6.96238 153.404 34.5657 118.838 9.27571 110.404 108.565 32.9512 17.8933 15.2436
internal_count=24290853 23468 10653 12815 2685 10130 2660 1094 7470 1360 24267385 446107 432017 10655 14090 421362 67075 15183 13474 2810 51892 2254 49638 11179 38459 3001 35730 35134 10664 5793 4936
is_linear=0
shrinkage=0.1


Tree=25
num_leaves=32
num_cat=0
split_feature=20 2 14 2 19 17 5 18 16 9 1 18 0 18 9 0 10 11 1 16 16 16 18 11 14 17 15 4 14 10 2
split_gain=12.2652 6.77102 6.14069 6.02274 5.66045 5.35389 19.77 14.3848 7.73375 7.39393 7.23348 9.01986 7.13189 6.17803 5.83306 6.05089 5.05103 8.78779 4.92954 4.5109 22.1736 17.0234 17.0248 15.5697 15.1588 15.6453 23.6134 27.9246 33.0674 21.1339 20.2324
threshold=50132.000000000007 59916.000000000007 262.50000000000006 15.500000000000002 1.5000000000000002 69.500000000000014 681.50000000000011 39.500000000000007 69.500000000000014 4.5000000000000009 134128.00000000003 49.500000000000007 5143.0000000000009 15.500000000000002 13.500000000000002 9568.5000000000018 19.500000000000004 2.5000000000000004 62144.000000000007 29.500000000000004 83.500000000000014 17.500000000000004 271.50000000000006 5.5000000000000009 11595.500000000002 30.500000000000004 32.500000000000007 32.500000000000007 5.5000000000000009 14.500000000000002 9.5000000000000018
decision_type=2 2 2 2 2 2 2 2 2 2 2 2 2 2 2 2 2 2 2 2 2 2 2 2 2 2 2 2 2 2 2
left_child=1 19 3 16 5 7 -7 8 9 12 14 -12 -3 -11 15 -8 17 -2 -15 21 -21 -1 24 -24 25 26 -23 28 29 -28 -30
right_child=2 4 -4 -5 -6 6 10 -9 -10 13 11 -13 -14 18 -16 -17 -18 -19 -20 20 -22 22 23 -25 -26 -27 27 -29 30 -31 -32
leaf_value=-2.2895639683936006e-05 0.04207195776123078 0.021947221985595389 -0.1673881501261214 -0.18651993246695753 -0.18400741349718344 -0.21453449174105535 0.10057066925944405 -0.18913638909535627 -0.18301787164535493 -0.1552517566312826 0.13312488170797707 -0.17965345504721644 -0.17764031846031222 -0.18461322812817491 -0.15000650111271199 -0.14985812526813966 0.14490838738095116 -0.19032177184113727 0.10977253946489335 -0.012251535454862779 0.00065918915600437621 0.03965423054834416 0.1104053437087871 -0.071789795257431996 -0.20097907603643189 -0.0070118845937336407 0.10650236706872732 0.023987922457414518 -0.098630495493375298 -0.12315112661113713 0.018470006832622229
leaf_weight=66482.188106386922 81.68089563556714 6.7007949848193764 1.4495688590395719 1.1574994075344864 1.2147085348842654 2.5374414389953008 34.69738168787444 3.5046798539115107 1.6544492701068509 1.0302055337815534 1.5175952427089208 2.3492240682826377 2.4431132363388315 0.59250598959624667 1.0106988325715054 0.99242694483837013 4.61582361254841 1.6602356786606822 14.227087573555762 1749.7857373824299 5548.2295137027031 317.30159664538223 29.32695993501693 5.5833132393890983 3.3853223705664268 331.77912959063542 4.4338272158056489 249.79767023492604 17.547946466365829 41.638737915782258 92.692144672153518
leaf_count=21521011 26444 2171 469 374 394 821 11233 1134 534 335 490 762 791 192 327 321 1494 536 4602 566430 1796014 102711 9490 1809 1097 107401 1439 80868 5675 13477 30007
internal_value=0 -4.44427e-05 0.0367787 0.0400998 0.0300935 0.0336436 0.0562541 0.00132094 0.0263693 0.0402296 0.0731916 -0.0568986 -0.0313795 0.0815416 0.0868981 0.093607 0.0430821 0.0374425 0.0980026 -7.44191e-05 -0.00243631 0.00018066 0.0125565 0.0812663 0.0102905 0.0109683 0.0192146 0.00324479 -0.0299041 -0.10105 -0.000169975
internal_weight=0 74948.2 90.564 89.1145 74.4723 73.2576 43.1048 30.1528 26.6482 24.9937 40.5673 3.86682 9.14391 15.8498 36.7005 35.6898 87.957 83.3411 14.8196 74873.7 7298.02 67575.7 1093.49 34.9103 1058.58 1055.19 723.412 406.11 156.313 46.0726 110.24
internal_count=24290853 24261536 29317 28848 24107 23713 13954 9759 8625 8091 13133 1252 2962 5129 11881 11554 28474 26980 4794 24237429 2362444 21874985 353974 11299 342675 341578 234177 131466 50598 14916 35682
is_linear=0
shrinkage=0.1


Tree=26
num_leaves=32
num_cat=0
split_feature=20 2 0 0 0 0 7 18 0 10 12 12 7 12 16 14 16 14 11 6 0 0 16 0 21 0 16 6 7 12 9
split_gain=9.9753 9.49391 6.23229 14.9643 8.05422 9.43047 8.78531 5.83824 5.07093 5.05055 8.4178 6.13816 9.27178 5.8998 4.76023 19.9274 5.58748 5.287 5.10768 4.40772 14.2396 15.1884 14.3987 14.1584 22.2788 23.5595 28.5454 25.2433 30.9697 21.9597 20.94
threshold=50132.000000000007 59916.000000000007 5053.5000000000009 3265.5000000000005 5593.5000000000009 6678.0000000000009 54.500000000000007 37.500000000000007 9877.0000000000018 19.500000000000004 93.500000000000014 78.500000000000014 1.0000000180025095e-35 66.500000000000014 16.500000000000004 1.0000000180025095e-35 1.0000000180025095e-35 3.5000000000000004 1.0000000180025095e-35 6921.0000000000009 87.500000000000014 80.500000000000014 7612.5000000000009 142.50000000000003 83.500000000000014 106.00000000000001 45.500000000000007 21301.500000000004 642.50000000000011 12.500000000000002 411.00000000000006
decision_type=2 2 2 2 2 2 2 2 2 2 2 2 2 2 2 2 2 2 2 2 2 2 2 2 2 2 2 2 2 2 2
left_child=1 19 3 -3 7 -6 -7 -4 14 10 11 12 13 -2 16 -16 -8 18 -17 -1 21 22 -21 24 25 27 30 28 -22 -29 -27
right_child=9 2 4 -5 5 6 8 -9 -10 -11 -12 -13 -14 -15 15 17 -18 -19 -20 20 23 -23 -24 -25 -26 26 -28 29 -30 -31 -32
leaf_value=-0.00017871806555159309 0.033933297680110226 0.037433844265638311 -0.17431315799931602 -0.16915353446866746 -0.17422634087989153 -0.18722367532961204 -0.17146631522612121 0.15311078864872682 -0.14052281258105673 0.13510230681683935 -0.16781207130067896 0.11871357214261252 -0.17804732904437634 -0.18008698110645058 -0.17772796942251889 0.1075931236976293 0.10432416794391211 -0.17570277967541692 -0.18928109277268049 0.010264928099871661 0.060437766284349076 0.0780411193109391 -0.21043292341628078 0.0085578530361457746 0.0057993438243521571 -0.20321121087688432 -0.20127948117817748 0.067783753158686358 -0.1996592290080873 -0.20245568142763407 0.011819938428877904
leaf_weight=73503.914254818199 73.074055564269656 14.375180839211682 0.5777517082169642 4.6374105447903267 2.0525379093596703 1.5617497685598198 0.76305169664556416 9.4847520254552347 1.2886563864303742 4.6088642382528624 2.1482064237934528 7.5442494375165543 2.2021024763816959 1.3111446113907721 3.8602469580946517 12.564426021417598 19.709223535581259 0.769894733733964 0.6075574019923814 937.00982545106672 7.1695883076172349 33.551358552649617 2.9655097745708181 181.76295377191855 87.208482628047932 6.0444702426902976 21.153370760206599 27.861420384608213 12.664178898092358 3.3707564100623122 18.05936846655095
leaf_count=23804438 23666 4654 188 1502 665 508 249 3071 416 1494 694 2444 712 426 1250 4067 6384 248 197 303449 2324 10866 961 58866 28248 1954 6849 9022 4099 1092 5850
internal_value=0 -4.01694e-05 0.0361914 -0.0129554 0.0537423 0.0349656 0.0454064 0.134311 0.0545894 0.0331089 0.0276607 0.0326518 0.0241743 0.0301609 0.0611587 0.0233399 0.0940448 0.0790119 0.0938998 -7.5147e-05 0.00561111 0.0119285 0.00956865 -0.011225 -0.0308171 -0.0639687 -0.116503 -0.0174105 -0.105638 0.038618 -0.042103
internal_weight=0 74915 72.2524 19.0126 53.2398 43.1773 41.1248 10.0625 39.5631 90.8886 86.2798 84.1316 76.5873 74.3852 38.2744 17.8021 20.4723 13.9419 13.172 74842.7 1338.82 973.527 939.975 365.295 183.532 96.3232 45.2572 51.0659 19.8338 31.2322 24.1038
internal_count=24290853 24261417 23399 6156 17243 13984 13319 3259 12811 29436 27942 27248 24804 24092 12395 5762 6633 4512 4264 24238018 433580 315276 304410 118304 59438 31190 14653 16537 6423 10114 7804
is_linear=0
shrinkage=0.1


Tree=27
num_leaves=32
num_cat=0
split_feature=3 17 0 0 19 19 8 19 9 0 8 12 6 6 6 6 12 14 10 6 6 14 3 12 16 14 6 6 5 17 19
split_gain=11.3318 5.47953 3.92156 6.25217 4.02472 7.53925 3.77303 4.451 8.62813 3.75439 3.57369 11.3976 8.5042 6.29943 21.5405 8.7738 6.82154 6.30879 5.71568 3.78156 17.9856 19.8213 17.4657 15.7805 15.8299 15.6063 13.5834 22.1978 20.3568 32.1643 19.1706
threshold=70853.500000000015 226.00000000000003 5053.5000000000009 3265.5000000000005 465.50000000000006 106.50000000000001 5.5000000000000009 65.500000000000014 493.50000000000006 9877.0000000000018 75743.500000000015 14.500000000000002 9305.0000000000018 8822.0000000000018 7504.0000000000009 4263.5000000000009 2.5000000000000004 12.500000000000002 3376.0000000000005 67.500000000000014 63.500000000000007 10185.000000000002 56.500000000000007 50694.000000000007 8521.5000000000018 60969.000000000007 104.50000000000001 106.50000000000001 124.50000000000001 55.500000000000007 2.5000000000000004
decision_type=2 2 2 2 2 2 2 2 2 2 2 2 2 2 2 2 2 2 2 2 2 2 2 2 2 2 2 2 2 2 2
